<?xml version="1.0"?>
<opencv_storage>
<car40 type_id="opencv-haar-classifier">
  <size>
    36 24</size>
  <stages>
    <_>
      <trees>
        <_>
          <_>
            <feature>
              <rects>
                <_>
                  8 12 24 12 -1.</_>
                <_>
                  8 15 24 6 2.</_></rects>
              <tilted>0</tilted></feature>
            <threshold>-0.0373965501785278</threshold>
            <left_val>0.5658442974090576</left_val>
            <right_val>-0.4554227888584137</right_val></_></_>
        <_>
          <_>
            <feature>
              <rects>
                <_>
                  26 12 10 8 -1.</_>
                <_>
                  31 12 5 8 2.</_></rects>
              <tilted>0</tilted></feature>
            <threshold>0.0175418891012669</threshold>
            <left_val>-0.2569718956947327</left_val>
            <right_val>0.5414648056030273</right_val></_></_>
        <_>
          <_>
            <feature>
              <rects>
                <_>
                  5 10 24 4 -1.</_>
                <_>
                  5 12 24 2 2.</_></rects>
              <tilted>0</tilted></feature>
            <threshold>-0.0187995992600918</threshold>
            <left_val>0.5007314085960388</left_val>
            <right_val>-0.2205666005611420</right_val></_></_>
        <_>
          <_>
            <feature>
              <rects>
                <_>
                  12 22 9 2 -1.</_>
                <_>
                  15 22 3 2 3.</_></rects>
              <tilted>0</tilted></feature>
            <threshold>2.9403790831565857e-003</threshold>
            <left_val>0.1364281028509140</left_val>
            <right_val>-0.7956833243370056</right_val></_></_>
        <_>
          <_>
            <feature>
              <rects>
                <_>
                  15 15 8 6 -1.</_>
                <_>
                  15 18 8 3 2.</_></rects>
              <tilted>0</tilted></feature>
            <threshold>-0.0116174602881074</threshold>
            <left_val>0.4597328007221222</left_val>
            <right_val>-0.2403097003698349</right_val></_></_>
        <_>
          <_>
            <feature>
              <rects>
                <_>
                  14 0 7 10 -1.</_>
                <_>
                  14 5 7 5 2.</_></rects>
              <tilted>0</tilted></feature>
            <threshold>-0.0317121110856533</threshold>
            <left_val>0.5645487904548645</left_val>
            <right_val>-0.1707178950309753</right_val></_></_>
        <_>
          <_>
            <feature>
              <rects>
                <_>
                  25 23 4 1 -1.</_>
                <_>
                  26 23 2 1 2.</_></rects>
              <tilted>0</tilted></feature>
            <threshold>3.0594240524806082e-004</threshold>
            <left_val>0.1562034040689468</left_val>
            <right_val>-0.6995766758918762</right_val></_></_>
        <_>
          <_>
            <feature>
              <rects>
                <_>
                  25 22 4 2 -1.</_>
                <_>
                  26 22 2 2 2.</_></rects>
              <tilted>0</tilted></feature>
            <threshold>-3.7040578899905086e-004</threshold>
            <left_val>-0.5598834156990051</left_val>
            <right_val>0.1883770972490311</right_val></_></_>
        <_>
          <_>
            <feature>
              <rects>
                <_>
                  12 5 7 12 -1.</_>
                <_>
                  8 9 7 4 3.</_></rects>
              <tilted>1</tilted></feature>
            <threshold>-0.0385947898030281</threshold>
            <left_val>0.3798098862171173</left_val>
            <right_val>-0.2259880006313324</right_val></_></_>
        <_>
          <_>
            <feature>
              <rects>
                <_>
                  25 9 10 4 -1.</_>
                <_>
                  30 9 5 4 2.</_></rects>
              <tilted>0</tilted></feature>
            <threshold>-0.0114712603390217</threshold>
            <left_val>0.5469366908073425</left_val>
            <right_val>-0.1606903970241547</right_val></_></_>
        <_>
          <_>
            <feature>
              <rects>
                <_>
                  3 21 2 2 -1.</_>
                <_>
                  4 21 1 2 2.</_></rects>
              <tilted>0</tilted></feature>
            <threshold>3.3042678842321038e-004</threshold>
            <left_val>0.1435414999723434</left_val>
            <right_val>-0.6491630077362061</right_val></_></_>
        <_>
          <_>
            <feature>
              <rects>
                <_>
                  6 11 7 6 -1.</_>
                <_>
                  4 13 7 2 3.</_></rects>
              <tilted>1</tilted></feature>
            <threshold>-0.0127234598621726</threshold>
            <left_val>0.4615372121334076</left_val>
            <right_val>-0.1775207966566086</right_val></_></_>
        <_>
          <_>
            <feature>
              <rects>
                <_>
                  33 20 3 1 -1.</_>
                <_>
                  34 20 1 1 3.</_></rects>
              <tilted>0</tilted></feature>
            <threshold>-2.2720880224369466e-004</threshold>
            <left_val>-0.5889772176742554</left_val>
            <right_val>0.1261132955551148</right_val></_></_>
        <_>
          <_>
            <feature>
              <rects>
                <_>
                  13 2 3 10 -1.</_>
                <_>
                  14 3 1 10 3.</_></rects>
              <tilted>1</tilted></feature>
            <threshold>-2.9057778883725405e-003</threshold>
            <left_val>0.4065484106540680</left_val>
            <right_val>-0.1937987953424454</right_val></_></_>
        <_>
          <_>
            <feature>
              <rects>
                <_>
                  15 22 8 2 -1.</_>
                <_>
                  17 22 4 2 2.</_></rects>
              <tilted>0</tilted></feature>
            <threshold>1.6593389445915818e-003</threshold>
            <left_val>0.1143603026866913</left_val>
            <right_val>-0.6335015892982483</right_val></_></_></trees>
      <stage_threshold>-1.2926449775695801</stage_threshold>
      <parent>-1</parent>
      <next>-1</next></_>
    <_>
      <trees>
        <_>
          <_>
            <feature>
              <rects>
                <_>
                  10 12 15 12 -1.</_>
                <_>
                  10 15 15 6 2.</_></rects>
              <tilted>0</tilted></feature>
            <threshold>-0.0212098695337772</threshold>
            <left_val>0.4456307888031006</left_val>
            <right_val>-0.4495720863342285</right_val></_></_>
        <_>
          <_>
            <feature>
              <rects>
                <_>
                  0 13 8 7 -1.</_>
                <_>
                  4 13 4 7 2.</_></rects>
              <tilted>0</tilted></feature>
            <threshold>-6.2688449397683144e-003</threshold>
            <left_val>0.4535070955753326</left_val>
            <right_val>-0.3336179852485657</right_val></_></_>
        <_>
          <_>
            <feature>
              <rects>
                <_>
                  14 11 15 2 -1.</_>
                <_>
                  14 12 15 1 2.</_></rects>
              <tilted>0</tilted></feature>
            <threshold>-3.2044260296970606e-003</threshold>
            <left_val>0.4767842888832092</left_val>
            <right_val>-0.2441755980253220</right_val></_></_>
        <_>
          <_>
            <feature>
              <rects>
                <_>
                  13 17 10 4 -1.</_>
                <_>
                  13 19 10 2 2.</_></rects>
              <tilted>0</tilted></feature>
            <threshold>-6.1722542159259319e-003</threshold>
            <left_val>0.5078936219215393</left_val>
            <right_val>-0.2095633000135422</right_val></_></_>
        <_>
          <_>
            <feature>
              <rects>
                <_>
                  12 0 19 10 -1.</_>
                <_>
                  12 5 19 5 2.</_></rects>
              <tilted>0</tilted></feature>
            <threshold>-0.0707708522677422</threshold>
            <left_val>0.5062736868858337</left_val>
            <right_val>-0.1946668028831482</right_val></_></_>
        <_>
          <_>
            <feature>
              <rects>
                <_>
                  17 9 5 4 -1.</_>
                <_>
                  17 10 5 2 2.</_></rects>
              <tilted>0</tilted></feature>
            <threshold>-1.1767869582399726e-003</threshold>
            <left_val>0.4363852143287659</left_val>
            <right_val>-0.1918607950210571</right_val></_></_>
        <_>
          <_>
            <feature>
              <rects>
                <_>
                  24 16 12 3 -1.</_>
                <_>
                  30 16 6 3 2.</_></rects>
              <tilted>0</tilted></feature>
            <threshold>4.5641059987246990e-003</threshold>
            <left_val>-0.2101832032203674</left_val>
            <right_val>0.3591488897800446</right_val></_></_>
        <_>
          <_>
            <feature>
              <rects>
                <_>
                  7 2 16 21 -1.</_>
                <_>
                  7 9 16 7 3.</_></rects>
              <tilted>0</tilted></feature>
            <threshold>0.2118521034717560</threshold>
            <left_val>-0.1546709984540939</left_val>
            <right_val>0.5645148158073425</right_val></_></_>
        <_>
          <_>
            <feature>
              <rects>
                <_>
                  13 7 14 3 -1.</_>
                <_>
                  13 8 14 1 3.</_></rects>
              <tilted>0</tilted></feature>
            <threshold>-5.1389639265835285e-003</threshold>
            <left_val>0.5143256783485413</left_val>
            <right_val>-0.1022742986679077</right_val></_></_>
        <_>
          <_>
            <feature>
              <rects>
                <_>
                  10 7 18 3 -1.</_>
                <_>
                  10 8 18 1 3.</_></rects>
              <tilted>0</tilted></feature>
            <threshold>4.6925819478929043e-003</threshold>
            <left_val>-0.1902723014354706</left_val>
            <right_val>0.4921562075614929</right_val></_></_>
        <_>
          <_>
            <feature>
              <rects>
                <_>
                  2 23 12 1 -1.</_>
                <_>
                  6 23 4 1 3.</_></rects>
              <tilted>0</tilted></feature>
            <threshold>2.5207230355590582e-003</threshold>
            <left_val>0.1372348964214325</left_val>
            <right_val>-0.6135619878768921</right_val></_></_>
        <_>
          <_>
            <feature>
              <rects>
                <_>
                  15 12 9 2 -1.</_>
                <_>
                  15 13 9 1 2.</_></rects>
              <tilted>0</tilted></feature>
            <threshold>-1.8326720455661416e-003</threshold>
            <left_val>0.3158408105373383</left_val>
            <right_val>-0.2493838071823120</right_val></_></_>
        <_>
          <_>
            <feature>
              <rects>
                <_>
                  2 22 12 2 -1.</_>
                <_>
                  6 22 4 2 3.</_></rects>
              <tilted>0</tilted></feature>
            <threshold>-6.8501420319080353e-003</threshold>
            <left_val>-0.7169098258018494</left_val>
            <right_val>0.1101709976792336</right_val></_></_></trees>
      <stage_threshold>-1.1482789516448975</stage_threshold>
      <parent>0</parent>
      <next>-1</next></_>
    <_>
      <trees>
        <_>
          <_>
            <feature>
              <rects>
                <_>
                  6 8 11 12 -1.</_>
                <_>
                  6 14 11 6 2.</_></rects>
              <tilted>0</tilted></feature>
            <threshold>-0.0368825793266296</threshold>
            <left_val>0.4011822044849396</left_val>
            <right_val>-0.3323453068733215</right_val></_></_>
        <_>
          <_>
            <feature>
              <rects>
                <_>
                  30 15 6 1 -1.</_>
                <_>
                  33 15 3 1 2.</_></rects>
              <tilted>0</tilted></feature>
            <threshold>5.2878877613693476e-004</threshold>
            <left_val>-0.2750327885150909</left_val>
            <right_val>0.3972806930541992</right_val></_></_>
        <_>
          <_>
            <feature>
              <rects>
                <_>
                  8 0 23 16 -1.</_>
                <_>
                  8 8 23 8 2.</_></rects>
              <tilted>0</tilted></feature>
            <threshold>-0.2227108031511307</threshold>
            <left_val>0.5955932736396790</left_val>
            <right_val>-0.1465471982955933</right_val></_></_>
        <_>
          <_>
            <feature>
              <rects>
                <_>
                  11 5 9 16 -1.</_>
                <_>
                  11 9 9 8 2.</_></rects>
              <tilted>0</tilted></feature>
            <threshold>0.0560227707028389</threshold>
            <left_val>-0.1880967020988464</left_val>
            <right_val>0.5100923776626587</right_val></_></_>
        <_>
          <_>
            <feature>
              <rects>
                <_>
                  30 23 6 1 -1.</_>
                <_>
                  33 23 3 1 2.</_></rects>
              <tilted>0</tilted></feature>
            <threshold>-6.2452170823235065e-005</threshold>
            <left_val>0.3900555968284607</left_val>
            <right_val>-0.2096816003322601</right_val></_></_>
        <_>
          <_>
            <feature>
              <rects>
                <_>
                  19 20 1 4 -1.</_>
                <_>
                  19 22 1 2 2.</_></rects>
              <tilted>0</tilted></feature>
            <threshold>3.1731091439723969e-004</threshold>
            <left_val>-0.2489801943302155</left_val>
            <right_val>0.3116176128387451</right_val></_></_>
        <_>
          <_>
            <feature>
              <rects>
                <_>
                  20 21 3 3 -1.</_>
                <_>
                  21 21 1 3 3.</_></rects>
              <tilted>0</tilted></feature>
            <threshold>1.0402479674667120e-003</threshold>
            <left_val>0.1555878072977066</left_val>
            <right_val>-0.7454646825790405</right_val></_></_>
        <_>
          <_>
            <feature>
              <rects>
                <_>
                  23 11 2 2 -1.</_>
                <_>
                  23 12 2 1 2.</_></rects>
              <tilted>0</tilted></feature>
            <threshold>-1.8565139907877892e-004</threshold>
            <left_val>0.2596443891525269</left_val>
            <right_val>-0.2972281873226166</right_val></_></_>
        <_>
          <_>
            <feature>
              <rects>
                <_>
                  24 22 9 2 -1.</_>
                <_>
                  27 22 3 2 3.</_></rects>
              <tilted>0</tilted></feature>
            <threshold>3.0032100621610880e-003</threshold>
            <left_val>0.1398869007825851</left_val>
            <right_val>-0.7008289098739624</right_val></_></_>
        <_>
          <_>
            <feature>
              <rects>
                <_>
                  0 20 2 4 -1.</_>
                <_>
                  0 22 2 2 2.</_></rects>
              <tilted>0</tilted></feature>
            <threshold>-3.9860631659394130e-005</threshold>
            <left_val>0.2622390091419220</left_val>
            <right_val>-0.2672036886215210</right_val></_></_>
        <_>
          <_>
            <feature>
              <rects>
                <_>
                  18 21 4 3 -1.</_>
                <_>
                  19 21 2 3 2.</_></rects>
              <tilted>0</tilted></feature>
            <threshold>7.8147929161787033e-004</threshold>
            <left_val>0.1271211951971054</left_val>
            <right_val>-0.6687827706336975</right_val></_></_>
        <_>
          <_>
            <feature>
              <rects>
                <_>
                  28 12 8 8 -1.</_>
                <_>
                  28 12 4 4 2.</_>
                <_>
                  32 16 4 4 2.</_></rects>
              <tilted>0</tilted></feature>
            <threshold>0.0103374300524592</threshold>
            <left_val>-0.1825519949197769</left_val>
            <right_val>0.4036796092987061</right_val></_></_>
        <_>
          <_>
            <feature>
              <rects>
                <_>
                  29 10 6 7 -1.</_>
                <_>
                  29 10 3 7 2.</_></rects>
              <tilted>1</tilted></feature>
            <threshold>-0.0266118403524160</threshold>
            <left_val>0.4690473079681397</left_val>
            <right_val>-0.1278579980134964</right_val></_></_>
        <_>
          <_>
            <feature>
              <rects>
                <_>
                  8 21 3 3 -1.</_>
                <_>
                  9 21 1 3 3.</_></rects>
              <tilted>0</tilted></feature>
            <threshold>7.7062100172042847e-004</threshold>
            <left_val>0.1175995022058487</left_val>
            <right_val>-0.6522449851036072</right_val></_></_>
        <_>
          <_>
            <feature>
              <rects>
                <_>
                  11 8 15 3 -1.</_>
                <_>
                  11 9 15 1 3.</_></rects>
              <tilted>0</tilted></feature>
            <threshold>-4.8428880982100964e-003</threshold>
            <left_val>0.4400987923145294</left_val>
            <right_val>-0.1733887940645218</right_val></_></_>
        <_>
          <_>
            <feature>
              <rects>
                <_>
                  20 9 6 4 -1.</_>
                <_>
                  20 10 6 2 2.</_></rects>
              <tilted>0</tilted></feature>
            <threshold>-9.0038438793271780e-004</threshold>
            <left_val>0.3735457956790924</left_val>
            <right_val>-0.1996877044439316</right_val></_></_>
        <_>
          <_>
            <feature>
              <rects>
                <_>
                  8 22 3 2 -1.</_>
                <_>
                  9 22 1 2 3.</_></rects>
              <tilted>0</tilted></feature>
            <threshold>-3.9939669659361243e-004</threshold>
            <left_val>-0.6015779972076416</left_val>
            <right_val>0.1015895977616310</right_val></_></_>
        <_>
          <_>
            <feature>
              <rects>
                <_>
                  12 20 14 4 -1.</_>
                <_>
                  12 21 14 2 2.</_></rects>
              <tilted>0</tilted></feature>
            <threshold>-7.2258259169757366e-003</threshold>
            <left_val>0.4908418059349060</left_val>
            <right_val>-0.1540734022855759</right_val></_></_>
        <_>
          <_>
            <feature>
              <rects>
                <_>
                  18 6 2 3 -1.</_>
                <_>
                  18 7 2 1 3.</_></rects>
              <tilted>0</tilted></feature>
            <threshold>-6.6647032508626580e-004</threshold>
            <left_val>0.4071277081966400</left_val>
            <right_val>-0.1683288961648941</right_val></_></_>
        <_>
          <_>
            <feature>
              <rects>
                <_>
                  12 0 4 12 -1.</_>
                <_>
                  12 0 2 12 2.</_></rects>
              <tilted>1</tilted></feature>
            <threshold>0.0277449600398541</threshold>
            <left_val>-0.0953070521354675</left_val>
            <right_val>0.6077836751937866</right_val></_></_>
        <_>
          <_>
            <feature>
              <rects>
                <_>
                  23 12 6 8 -1.</_>
                <_>
                  23 16 6 4 2.</_></rects>
              <tilted>0</tilted></feature>
            <threshold>-0.0157550591975451</threshold>
            <left_val>0.3870239853858948</left_val>
            <right_val>-0.1774370968341827</right_val></_></_></trees>
      <stage_threshold>-1.1724760532379150</stage_threshold>
      <parent>1</parent>
      <next>-1</next></_>
    <_>
      <trees>
        <_>
          <_>
            <feature>
              <rects>
                <_>
                  0 19 16 2 -1.</_>
                <_>
                  8 19 8 2 2.</_></rects>
              <tilted>0</tilted></feature>
            <threshold>-9.4468012684956193e-004</threshold>
            <left_val>0.4736092984676361</left_val>
            <right_val>-0.4495056867599487</right_val></_></_>
        <_>
          <_>
            <feature>
              <rects>
                <_>
                  16 4 1 2 -1.</_>
                <_>
                  16 5 1 1 2.</_></rects>
              <tilted>0</tilted></feature>
            <threshold>-1.1337739852024242e-004</threshold>
            <left_val>0.6596028804779053</left_val>
            <right_val>-0.2489670068025589</right_val></_></_>
        <_>
          <_>
            <feature>
              <rects>
                <_>
                  9 11 1 2 -1.</_>
                <_>
                  9 12 1 1 2.</_></rects>
              <tilted>0</tilted></feature>
            <threshold>-1.3099900388624519e-004</threshold>
            <left_val>0.5870317220687866</left_val>
            <right_val>-0.2577452957630158</right_val></_></_>
        <_>
          <_>
            <feature>
              <rects>
                <_>
                  18 13 1 2 -1.</_>
                <_>
                  18 14 1 1 2.</_></rects>
              <tilted>0</tilted></feature>
            <threshold>-1.8600809562485665e-004</threshold>
            <left_val>0.5776029229164124</left_val>
            <right_val>-0.2773736119270325</right_val></_></_>
        <_>
          <_>
            <feature>
              <rects>
                <_>
                  0 1 4 1 -1.</_>
                <_>
                  2 1 2 1 2.</_></rects>
              <tilted>0</tilted></feature>
            <threshold>1.7680169548839331e-005</threshold>
            <left_val>-0.2578785121440888</left_val>
            <right_val>0.5359951853752136</right_val></_></_>
        <_>
          <_>
            <feature>
              <rects>
                <_>
                  14 10 1 2 -1.</_>
                <_>
                  14 11 1 1 2.</_></rects>
              <tilted>0</tilted></feature>
            <threshold>-1.5484390314668417e-004</threshold>
            <left_val>0.6069558262825012</left_val>
            <right_val>-0.2290665060281754</right_val></_></_>
        <_>
          <_>
            <feature>
              <rects>
                <_>
                  9 11 1 2 -1.</_>
                <_>
                  9 12 1 1 2.</_></rects>
              <tilted>0</tilted></feature>
            <threshold>9.1881076514255255e-005</threshold>
            <left_val>-0.2387516945600510</left_val>
            <right_val>0.5833039283752441</right_val></_></_>
        <_>
          <_>
            <feature>
              <rects>
                <_>
                  18 22 1 2 -1.</_>
                <_>
                  18 23 1 1 2.</_></rects>
              <tilted>0</tilted></feature>
            <threshold>5.6957960623549297e-005</threshold>
            <left_val>-0.2157047986984253</left_val>
            <right_val>0.5679585933685303</right_val></_></_>
        <_>
          <_>
            <feature>
              <rects>
                <_>
                  23 8 2 2 -1.</_>
                <_>
                  23 9 2 1 2.</_></rects>
              <tilted>0</tilted></feature>
            <threshold>1.9324090681038797e-004</threshold>
            <left_val>-0.2421634942293167</left_val>
            <right_val>0.5836864113807678</right_val></_></_>
        <_>
          <_>
            <feature>
              <rects>
                <_>
                  23 8 2 2 -1.</_>
                <_>
                  23 9 2 1 2.</_></rects>
              <tilted>0</tilted></feature>
            <threshold>-1.3762210437562317e-004</threshold>
            <left_val>0.5791280865669251</left_val>
            <right_val>-0.2952745854854584</right_val></_></_></trees>
      <stage_threshold>-1.0737799406051636</stage_threshold>
      <parent>2</parent>
      <next>-1</next></_>
    <_>
      <trees>
        <_>
          <_>
            <feature>
              <rects>
                <_>
                  9 9 14 12 -1.</_>
                <_>
                  9 15 14 6 2.</_></rects>
              <tilted>0</tilted></feature>
            <threshold>-0.0183814894407988</threshold>
            <left_val>0.3187443912029266</left_val>
            <right_val>-0.4276477098464966</right_val></_></_>
        <_>
          <_>
            <feature>
              <rects>
                <_>
                  23 3 1 6 -1.</_>
                <_>
                  23 5 1 2 3.</_></rects>
              <tilted>0</tilted></feature>
            <threshold>-4.7547271242365241e-004</threshold>
            <left_val>0.4595527052879334</left_val>
            <right_val>-0.2272251993417740</right_val></_></_>
        <_>
          <_>
            <feature>
              <rects>
                <_>
                  23 2 1 4 -1.</_>
                <_>
                  23 4 1 2 2.</_></rects>
              <tilted>0</tilted></feature>
            <threshold>1.5144290227908641e-004</threshold>
            <left_val>-0.1828763931989670</left_val>
            <right_val>0.5145627856254578</right_val></_></_>
        <_>
          <_>
            <feature>
              <rects>
                <_>
                  0 18 8 6 -1.</_>
                <_>
                  0 18 4 3 2.</_>
                <_>
                  4 21 4 3 2.</_></rects>
              <tilted>0</tilted></feature>
            <threshold>1.8146459478884935e-004</threshold>
            <left_val>-0.3260950148105621</left_val>
            <right_val>0.2753233909606934</right_val></_></_>
        <_>
          <_>
            <feature>
              <rects>
                <_>
                  15 7 1 3 -1.</_>
                <_>
                  15 8 1 1 3.</_></rects>
              <tilted>0</tilted></feature>
            <threshold>-2.3846499971114099e-004</threshold>
            <left_val>0.4243201911449432</left_val>
            <right_val>-0.2098127007484436</right_val></_></_>
        <_>
          <_>
            <feature>
              <rects>
                <_>
                  23 2 1 4 -1.</_>
                <_>
                  23 4 1 2 2.</_></rects>
              <tilted>0</tilted></feature>
            <threshold>-1.5645640087313950e-004</threshold>
            <left_val>0.3678027093410492</left_val>
            <right_val>-0.2237420976161957</right_val></_></_>
        <_>
          <_>
            <feature>
              <rects>
                <_>
                  10 4 18 20 -1.</_>
                <_>
                  10 9 18 10 2.</_></rects>
              <tilted>0</tilted></feature>
            <threshold>-0.2267131954431534</threshold>
            <left_val>0.7225865125656128</left_val>
            <right_val>-0.1173913031816483</right_val></_></_>
        <_>
          <_>
            <feature>
              <rects>
                <_>
                  22 20 14 4 -1.</_>
                <_>
                  22 20 7 2 2.</_>
                <_>
                  29 22 7 2 2.</_></rects>
              <tilted>0</tilted></feature>
            <threshold>-9.6411118283867836e-004</threshold>
            <left_val>0.3293260931968689</left_val>
            <right_val>-0.2621006965637207</right_val></_></_>
        <_>
          <_>
            <feature>
              <rects>
                <_>
                  15 7 1 2 -1.</_>
                <_>
                  15 8 1 1 2.</_></rects>
              <tilted>0</tilted></feature>
            <threshold>1.5818250540178269e-004</threshold>
            <left_val>-0.1880950033664703</left_val>
            <right_val>0.4581240117549896</right_val></_></_>
        <_>
          <_>
            <feature>
              <rects>
                <_>
                  7 14 1 2 -1.</_>
                <_>
                  7 15 1 1 2.</_></rects>
              <tilted>0</tilted></feature>
            <threshold>-1.8494909454602748e-004</threshold>
            <left_val>0.4227080047130585</left_val>
            <right_val>-0.1800023019313812</right_val></_></_>
        <_>
          <_>
            <feature>
              <rects>
                <_>
                  5 12 10 4 -1.</_>
                <_>
                  5 13 10 2 2.</_></rects>
              <tilted>0</tilted></feature>
            <threshold>-2.3985491134226322e-003</threshold>
            <left_val>0.3806451857089996</left_val>
            <right_val>-0.2057085931301117</right_val></_></_>
        <_>
          <_>
            <feature>
              <rects>
                <_>
                  4 10 10 4 -1.</_>
                <_>
                  4 11 10 2 2.</_></rects>
              <tilted>0</tilted></feature>
            <threshold>-1.5276200138032436e-003</threshold>
            <left_val>0.3603669106960297</left_val>
            <right_val>-0.2128764986991882</right_val></_></_>
        <_>
          <_>
            <feature>
              <rects>
                <_>
                  0 22 1 2 -1.</_>
                <_>
                  0 23 1 1 2.</_></rects>
              <tilted>0</tilted></feature>
            <threshold>-1.8209810150437988e-005</threshold>
            <left_val>0.3664334118366242</left_val>
            <right_val>-0.1915064007043839</right_val></_></_>
        <_>
          <_>
            <feature>
              <rects>
                <_>
                  0 5 36 9 -1.</_>
                <_>
                  9 5 18 9 2.</_></rects>
              <tilted>0</tilted></feature>
            <threshold>-0.0889013931155205</threshold>
            <left_val>0.5343146920204163</left_val>
            <right_val>-0.1319074928760529</right_val></_></_>
        <_>
          <_>
            <feature>
              <rects>
                <_>
                  9 7 24 12 -1.</_>
                <_>
                  9 11 24 4 3.</_></rects>
              <tilted>0</tilted></feature>
            <threshold>0.1740590929985046</threshold>
            <left_val>-0.0946309119462967</left_val>
            <right_val>0.7715892791748047</right_val></_></_>
        <_>
          <_>
            <feature>
              <rects>
                <_>
                  0 0 10 2 -1.</_>
                <_>
                  5 0 5 2 2.</_></rects>
              <tilted>0</tilted></feature>
            <threshold>2.3467039864044636e-004</threshold>
            <left_val>-0.1992222070693970</left_val>
            <right_val>0.3568153083324432</right_val></_></_></trees>
      <stage_threshold>-1.3355909585952759</stage_threshold>
      <parent>3</parent>
      <next>-1</next></_>
    <_>
      <trees>
        <_>
          <_>
            <feature>
              <rects>
                <_>
                  8 9 6 8 -1.</_>
                <_>
                  6 11 6 4 2.</_></rects>
              <tilted>1</tilted></feature>
            <threshold>-0.0188105795532465</threshold>
            <left_val>0.3685657978057861</left_val>
            <right_val>-0.2097703963518143</right_val></_></_>
        <_>
          <_>
            <feature>
              <rects>
                <_>
                  0 19 3 3 -1.</_>
                <_>
                  1 19 1 3 3.</_></rects>
              <tilted>0</tilted></feature>
            <threshold>-3.4953618887811899e-004</threshold>
            <left_val>-0.5701447725296021</left_val>
            <right_val>0.1423584967851639</right_val></_></_>
        <_>
          <_>
            <feature>
              <rects>
                <_>
                  28 23 6 1 -1.</_>
                <_>
                  30 23 2 1 3.</_></rects>
              <tilted>0</tilted></feature>
            <threshold>-5.4591830121353269e-004</threshold>
            <left_val>-0.5808519124984741</left_val>
            <right_val>0.1054404973983765</right_val></_></_>
        <_>
          <_>
            <feature>
              <rects>
                <_>
                  30 10 6 8 -1.</_>
                <_>
                  32 12 2 8 3.</_></rects>
              <tilted>1</tilted></feature>
            <threshold>-0.0190075505524874</threshold>
            <left_val>0.3976852893829346</left_val>
            <right_val>-0.1606567054986954</right_val></_></_>
        <_>
          <_>
            <feature>
              <rects>
                <_>
                  0 20 3 2 -1.</_>
                <_>
                  1 20 1 2 3.</_></rects>
              <tilted>0</tilted></feature>
            <threshold>2.7823520940728486e-004</threshold>
            <left_val>0.1945019066333771</left_val>
            <right_val>-0.4205349981784821</right_val></_></_>
        <_>
          <_>
            <feature>
              <rects>
                <_>
                  32 22 4 2 -1.</_>
                <_>
                  33 22 2 2 2.</_></rects>
              <tilted>0</tilted></feature>
            <threshold>-2.0870499429292977e-004</threshold>
            <left_val>-0.4428550899028778</left_val>
            <right_val>0.1173048987984657</right_val></_></_>
        <_>
          <_>
            <feature>
              <rects>
                <_>
                  6 13 6 3 -1.</_>
                <_>
                  5 14 6 1 3.</_></rects>
              <tilted>1</tilted></feature>
            <threshold>2.8809309005737305e-003</threshold>
            <left_val>-0.1285315006971359</left_val>
            <right_val>0.4545052051544190</right_val></_></_>
        <_>
          <_>
            <feature>
              <rects>
                <_>
                  24 11 6 6 -1.</_>
                <_>
                  26 13 2 6 3.</_></rects>
              <tilted>1</tilted></feature>
            <threshold>-0.0159150809049606</threshold>
            <left_val>0.3644042015075684</left_val>
            <right_val>-0.1557390987873077</right_val></_></_>
        <_>
          <_>
            <feature>
              <rects>
                <_>
                  11 4 13 6 -1.</_>
                <_>
                  11 6 13 2 3.</_></rects>
              <tilted>0</tilted></feature>
            <threshold>-0.0172445103526115</threshold>
            <left_val>0.3731580972671509</left_val>
            <right_val>-0.1501355022192001</right_val></_></_>
        <_>
          <_>
            <feature>
              <rects>
                <_>
                  0 15 10 5 -1.</_>
                <_>
                  5 15 5 5 2.</_></rects>
              <tilted>0</tilted></feature>
            <threshold>-9.6225664019584656e-003</threshold>
            <left_val>0.2903104126453400</left_val>
            <right_val>-0.1915823072195053</right_val></_></_>
        <_>
          <_>
            <feature>
              <rects>
                <_>
                  5 7 17 4 -1.</_>
                <_>
                  5 8 17 2 2.</_></rects>
              <tilted>0</tilted></feature>
            <threshold>-9.7128506749868393e-003</threshold>
            <left_val>0.4637843072414398</left_val>
            <right_val>-0.1386900991201401</right_val></_></_>
        <_>
          <_>
            <feature>
              <rects>
                <_>
                  5 8 20 4 -1.</_>
                <_>
                  5 10 20 2 2.</_></rects>
              <tilted>0</tilted></feature>
            <threshold>-0.0163095593452454</threshold>
            <left_val>0.4009262025356293</left_val>
            <right_val>-0.1576903015375137</right_val></_></_>
        <_>
          <_>
            <feature>
              <rects>
                <_>
                  16 14 15 8 -1.</_>
                <_>
                  16 18 15 4 2.</_></rects>
              <tilted>0</tilted></feature>
            <threshold>-0.0675569027662277</threshold>
            <left_val>0.5564376115798950</left_val>
            <right_val>-0.1081229001283646</right_val></_></_>
        <_>
          <_>
            <feature>
              <rects>
                <_>
                  16 12 20 8 -1.</_>
                <_>
                  21 12 10 8 2.</_></rects>
              <tilted>0</tilted></feature>
            <threshold>-8.8199768215417862e-003</threshold>
            <left_val>0.2207062989473343</left_val>
            <right_val>-0.2539232969284058</right_val></_></_>
        <_>
          <_>
            <feature>
              <rects>
                <_>
                  9 12 15 2 -1.</_>
                <_>
                  9 13 15 1 2.</_></rects>
              <tilted>0</tilted></feature>
            <threshold>-6.8677538074553013e-003</threshold>
            <left_val>0.4349355101585388</left_val>
            <right_val>-0.1334795951843262</right_val></_></_>
        <_>
          <_>
            <feature>
              <rects>
                <_>
                  11 11 20 3 -1.</_>
                <_>
                  11 12 20 1 3.</_></rects>
              <tilted>0</tilted></feature>
            <threshold>-4.9511198885738850e-003</threshold>
            <left_val>0.3531459867954254</left_val>
            <right_val>-0.1609929949045181</right_val></_></_>
        <_>
          <_>
            <feature>
              <rects>
                <_>
                  13 0 22 10 -1.</_>
                <_>
                  13 5 22 5 2.</_></rects>
              <tilted>0</tilted></feature>
            <threshold>-0.0898077189922333</threshold>
            <left_val>0.4091620147228241</left_val>
            <right_val>-0.1386214047670364</right_val></_></_>
        <_>
          <_>
            <feature>
              <rects>
                <_>
                  19 23 4 1 -1.</_>
                <_>
                  20 23 2 1 2.</_></rects>
              <tilted>0</tilted></feature>
            <threshold>-1.9175380293745548e-004</threshold>
            <left_val>-0.4856869876384735</left_val>
            <right_val>0.1088673993945122</right_val></_></_>
        <_>
          <_>
            <feature>
              <rects>
                <_>
                  15 10 6 10 -1.</_>
                <_>
                  17 10 2 10 3.</_></rects>
              <tilted>0</tilted></feature>
            <threshold>-5.6789400987327099e-003</threshold>
            <left_val>0.3951492011547089</left_val>
            <right_val>-0.1291002929210663</right_val></_></_>
        <_>
          <_>
            <feature>
              <rects>
                <_>
                  2 23 2 1 -1.</_>
                <_>
                  3 23 1 1 2.</_></rects>
              <tilted>0</tilted></feature>
            <threshold>-1.3045809464529157e-004</threshold>
            <left_val>-0.4689036905765533</left_val>
            <right_val>0.1004730984568596</right_val></_></_>
        <_>
          <_>
            <feature>
              <rects>
                <_>
                  27 12 8 10 -1.</_>
                <_>
                  27 12 4 5 2.</_>
                <_>
                  31 17 4 5 2.</_></rects>
              <tilted>0</tilted></feature>
            <threshold>4.6374700032174587e-003</threshold>
            <left_val>-0.1722422987222672</left_val>
            <right_val>0.2763118147850037</right_val></_></_>
        <_>
          <_>
            <feature>
              <rects>
                <_>
                  27 13 8 8 -1.</_>
                <_>
                  27 13 4 4 2.</_>
                <_>
                  31 17 4 4 2.</_></rects>
              <tilted>0</tilted></feature>
            <threshold>-8.7832305580377579e-003</threshold>
            <left_val>0.4019572138786316</left_val>
            <right_val>-0.1245191022753716</right_val></_></_>
        <_>
          <_>
            <feature>
              <rects>
                <_>
                  19 23 4 1 -1.</_>
                <_>
                  20 23 2 1 2.</_></rects>
              <tilted>0</tilted></feature>
            <threshold>2.2291879577096552e-004</threshold>
            <left_val>0.1168678998947144</left_val>
            <right_val>-0.4831362962722778</right_val></_></_>
        <_>
          <_>
            <feature>
              <rects>
                <_>
                  13 9 2 8 -1.</_>
                <_>
                  13 11 2 4 2.</_></rects>
              <tilted>0</tilted></feature>
            <threshold>7.7048270031809807e-003</threshold>
            <left_val>-0.0982175096869469</left_val>
            <right_val>0.4943459928035736</right_val></_></_></trees>
      <stage_threshold>-0.9994155764579773</stage_threshold>
      <parent>4</parent>
      <next>-1</next></_>
    <_>
      <trees>
        <_>
          <_>
            <feature>
              <rects>
                <_>
                  4 18 24 6 -1.</_>
                <_>
                  4 21 24 3 2.</_></rects>
              <tilted>0</tilted></feature>
            <threshold>0.0440283194184303</threshold>
            <left_val>-0.2131063938140869</left_val>
            <right_val>0.3597311079502106</right_val></_></_>
        <_>
          <_>
            <feature>
              <rects>
                <_>
                  16 22 4 2 -1.</_>
                <_>
                  17 22 2 2 2.</_></rects>
              <tilted>0</tilted></feature>
            <threshold>2.7924458845518529e-004</threshold>
            <left_val>0.1161229014396668</left_val>
            <right_val>-0.5282711982727051</right_val></_></_>
        <_>
          <_>
            <feature>
              <rects>
                <_>
                  27 12 8 7 -1.</_>
                <_>
                  29 12 4 7 2.</_></rects>
              <tilted>0</tilted></feature>
            <threshold>-4.4174049980938435e-003</threshold>
            <left_val>0.3806782066822052</left_val>
            <right_val>-0.1351893991231918</right_val></_></_>
        <_>
          <_>
            <feature>
              <rects>
                <_>
                  15 23 4 1 -1.</_>
                <_>
                  17 23 2 1 2.</_></rects>
              <tilted>0</tilted></feature>
            <threshold>-3.1240010866895318e-004</threshold>
            <left_val>-0.4885826110839844</left_val>
            <right_val>0.1063984036445618</right_val></_></_>
        <_>
          <_>
            <feature>
              <rects>
                <_>
                  0 9 10 6 -1.</_>
                <_>
                  0 9 5 3 2.</_>
                <_>
                  5 12 5 3 2.</_></rects>
              <tilted>0</tilted></feature>
            <threshold>-7.1321339346468449e-003</threshold>
            <left_val>0.3035512864589691</left_val>
            <right_val>-0.1694764047861099</right_val></_></_>
        <_>
          <_>
            <feature>
              <rects>
                <_>
                  26 12 9 2 -1.</_>
                <_>
                  29 12 3 2 3.</_></rects>
              <tilted>0</tilted></feature>
            <threshold>1.9991649314761162e-003</threshold>
            <left_val>-0.1452112942934036</left_val>
            <right_val>0.3560050129890442</right_val></_></_>
        <_>
          <_>
            <feature>
              <rects>
                <_>
                  2 12 6 4 -1.</_>
                <_>
                  4 12 2 4 3.</_></rects>
              <tilted>0</tilted></feature>
            <threshold>-2.7939560823142529e-003</threshold>
            <left_val>0.3103227019309998</left_val>
            <right_val>-0.1581348925828934</right_val></_></_>
        <_>
          <_>
            <feature>
              <rects>
                <_>
                  31 22 2 1 -1.</_>
                <_>
                  32 22 1 1 2.</_></rects>
              <tilted>0</tilted></feature>
            <threshold>-1.3964989921078086e-004</threshold>
            <left_val>-0.5313524007797241</left_val>
            <right_val>0.0854697301983833</right_val></_></_>
        <_>
          <_>
            <feature>
              <rects>
                <_>
                  2 12 6 3 -1.</_>
                <_>
                  4 12 2 3 3.</_></rects>
              <tilted>0</tilted></feature>
            <threshold>9.7357021877542138e-004</threshold>
            <left_val>-0.1686964035034180</left_val>
            <right_val>0.2970440983772278</right_val></_></_>
        <_>
          <_>
            <feature>
              <rects>
                <_>
                  20 16 16 7 -1.</_>
                <_>
                  28 16 8 7 2.</_></rects>
              <tilted>0</tilted></feature>
            <threshold>7.8825931996107101e-003</threshold>
            <left_val>-0.2335647940635681</left_val>
            <right_val>0.1933892965316773</right_val></_></_>
        <_>
          <_>
            <feature>
              <rects>
                <_>
                  26 23 6 1 -1.</_>
                <_>
                  28 23 2 1 3.</_></rects>
              <tilted>0</tilted></feature>
            <threshold>-1.3502170331776142e-003</threshold>
            <left_val>-0.6907312273979187</left_val>
            <right_val>0.0469848401844502</right_val></_></_>
        <_>
          <_>
            <feature>
              <rects>
                <_>
                  4 8 17 3 -1.</_>
                <_>
                  4 9 17 1 3.</_></rects>
              <tilted>0</tilted></feature>
            <threshold>-6.8114539608359337e-003</threshold>
            <left_val>0.3745904862880707</left_val>
            <right_val>-0.1134458035230637</right_val></_></_>
        <_>
          <_>
            <feature>
              <rects>
                <_>
                  10 8 21 3 -1.</_>
                <_>
                  10 9 21 1 3.</_></rects>
              <tilted>0</tilted></feature>
            <threshold>6.3057309016585350e-003</threshold>
            <left_val>-0.1343342065811157</left_val>
            <right_val>0.3921461999416351</right_val></_></_>
        <_>
          <_>
            <feature>
              <rects>
                <_>
                  2 23 4 1 -1.</_>
                <_>
                  3 23 2 1 2.</_></rects>
              <tilted>0</tilted></feature>
            <threshold>4.4605389120988548e-004</threshold>
            <left_val>0.0729609131813049</left_val>
            <right_val>-0.6152660250663757</right_val></_></_>
        <_>
          <_>
            <feature>
              <rects>
                <_>
                  17 17 6 3 -1.</_>
                <_>
                  19 18 2 1 9.</_></rects>
              <tilted>0</tilted></feature>
            <threshold>4.7997701913118362e-003</threshold>
            <left_val>-0.1154510006308556</left_val>
            <right_val>0.3786315917968750</right_val></_></_>
        <_>
          <_>
            <feature>
              <rects>
                <_>
                  13 20 12 4 -1.</_>
                <_>
                  13 21 12 2 2.</_></rects>
              <tilted>0</tilted></feature>
            <threshold>-6.3687050715088844e-003</threshold>
            <left_val>0.3842928111553192</left_val>
            <right_val>-0.1125961989164352</right_val></_></_>
        <_>
          <_>
            <feature>
              <rects>
                <_>
                  3 23 9 1 -1.</_>
                <_>
                  6 23 3 1 3.</_></rects>
              <tilted>0</tilted></feature>
            <threshold>2.9865500982850790e-003</threshold>
            <left_val>0.0692296698689461</left_val>
            <right_val>-0.7619429826736450</right_val></_></_>
        <_>
          <_>
            <feature>
              <rects>
                <_>
                  20 14 15 2 -1.</_>
                <_>
                  25 14 5 2 3.</_></rects>
              <tilted>0</tilted></feature>
            <threshold>-4.3946029618382454e-003</threshold>
            <left_val>0.2145566046237946</left_val>
            <right_val>-0.2019549012184143</right_val></_></_>
        <_>
          <_>
            <feature>
              <rects>
                <_>
                  7 23 8 1 -1.</_>
                <_>
                  11 23 4 1 2.</_></rects>
              <tilted>0</tilted></feature>
            <threshold>1.1337109608575702e-003</threshold>
            <left_val>0.0891323611140251</left_val>
            <right_val>-0.4824815094470978</right_val></_></_>
        <_>
          <_>
            <feature>
              <rects>
                <_>
                  28 12 4 3 -1.</_>
                <_>
                  30 12 2 3 2.</_></rects>
              <tilted>0</tilted></feature>
            <threshold>-6.7632901482284069e-004</threshold>
            <left_val>0.2627711892127991</left_val>
            <right_val>-0.1521655023097992</right_val></_></_>
        <_>
          <_>
            <feature>
              <rects>
                <_>
                  11 1 4 11 -1.</_>
                <_>
                  11 1 2 11 2.</_></rects>
              <tilted>1</tilted></feature>
            <threshold>0.0360513702034950</threshold>
            <left_val>-0.0768189430236816</left_val>
            <right_val>0.5655547976493835</right_val></_></_>
        <_>
          <_>
            <feature>
              <rects>
                <_>
                  0 12 12 8 -1.</_>
                <_>
                  0 12 6 4 2.</_>
                <_>
                  6 16 6 4 2.</_></rects>
              <tilted>0</tilted></feature>
            <threshold>-0.0166964903473854</threshold>
            <left_val>0.3251109123229981</left_val>
            <right_val>-0.1268341988325119</right_val></_></_>
        <_>
          <_>
            <feature>
              <rects>
                <_>
                  30 21 3 2 -1.</_>
                <_>
                  31 21 1 2 3.</_></rects>
              <tilted>0</tilted></feature>
            <threshold>-1.6716930258553475e-004</threshold>
            <left_val>-0.3527911007404327</left_val>
            <right_val>0.1208852976560593</right_val></_></_>
        <_>
          <_>
            <feature>
              <rects>
                <_>
                  12 16 4 4 -1.</_>
                <_>
                  11 17 4 2 2.</_></rects>
              <tilted>1</tilted></feature>
            <threshold>1.3346399646252394e-003</threshold>
            <left_val>-0.1421554982662201</left_val>
            <right_val>0.2788051962852478</right_val></_></_>
        <_>
          <_>
            <feature>
              <rects>
                <_>
                  13 19 6 3 -1.</_>
                <_>
                  13 20 6 1 3.</_></rects>
              <tilted>0</tilted></feature>
            <threshold>-4.1711451485753059e-003</threshold>
            <left_val>0.4199397861957550</left_val>
            <right_val>-0.1006089001893997</right_val></_></_>
        <_>
          <_>
            <feature>
              <rects>
                <_>
                  15 9 13 4 -1.</_>
                <_>
                  15 10 13 2 2.</_></rects>
              <tilted>0</tilted></feature>
            <threshold>8.1058507785201073e-003</threshold>
            <left_val>-0.1121703982353210</left_val>
            <right_val>0.3260855078697205</right_val></_></_>
        <_>
          <_>
            <feature>
              <rects>
                <_>
                  20 10 1 3 -1.</_>
                <_>
                  20 11 1 1 3.</_></rects>
              <tilted>0</tilted></feature>
            <threshold>-5.4918992100283504e-004</threshold>
            <left_val>0.3466543853282929</left_val>
            <right_val>-0.1202588975429535</right_val></_></_>
        <_>
          <_>
            <feature>
              <rects>
                <_>
                  3 3 19 4 -1.</_>
                <_>
                  3 4 19 2 2.</_></rects>
              <tilted>0</tilted></feature>
            <threshold>-0.0105594396591187</threshold>
            <left_val>0.4393300116062164</left_val>
            <right_val>-0.0865510925650597</right_val></_></_>
        <_>
          <_>
            <feature>
              <rects>
                <_>
                  1 17 2 1 -1.</_>
                <_>
                  1 17 1 1 2.</_></rects>
              <tilted>1</tilted></feature>
            <threshold>-5.4572522640228271e-004</threshold>
            <left_val>-0.3850859999656677</left_val>
            <right_val>0.0956352129578590</right_val></_></_>
        <_>
          <_>
            <feature>
              <rects>
                <_>
                  0 14 2 6 -1.</_>
                <_>
                  0 16 2 2 3.</_></rects>
              <tilted>0</tilted></feature>
            <threshold>4.2267329990863800e-003</threshold>
            <left_val>0.0732608512043953</left_val>
            <right_val>-0.4892663955688477</right_val></_></_></trees>
      <stage_threshold>-1.0607850551605225</stage_threshold>
      <parent>5</parent>
      <next>-1</next></_>
    <_>
      <trees>
        <_>
          <_>
            <feature>
              <rects>
                <_>
                  0 14 8 4 -1.</_>
                <_>
                  4 14 4 4 2.</_></rects>
              <tilted>0</tilted></feature>
            <threshold>-7.1211247704923153e-003</threshold>
            <left_val>0.3004162013530731</left_val>
            <right_val>-0.2138033062219620</right_val></_></_>
        <_>
          <_>
            <feature>
              <rects>
                <_>
                  27 23 6 1 -1.</_>
                <_>
                  29 23 2 1 3.</_></rects>
              <tilted>0</tilted></feature>
            <threshold>5.1340740174055099e-004</threshold>
            <left_val>0.1107117012143135</left_val>
            <right_val>-0.4910512864589691</right_val></_></_>
        <_>
          <_>
            <feature>
              <rects>
                <_>
                  28 23 4 1 -1.</_>
                <_>
                  29 23 2 1 2.</_></rects>
              <tilted>0</tilted></feature>
            <threshold>-2.8798039420507848e-004</threshold>
            <left_val>-0.5567731857299805</left_val>
            <right_val>0.1340706944465637</right_val></_></_>
        <_>
          <_>
            <feature>
              <rects>
                <_>
                  8 15 14 9 -1.</_>
                <_>
                  8 18 14 3 3.</_></rects>
              <tilted>0</tilted></feature>
            <threshold>-0.0421865992248058</threshold>
            <left_val>0.2744595110416412</left_val>
            <right_val>-0.1878670006990433</right_val></_></_>
        <_>
          <_>
            <feature>
              <rects>
                <_>
                  7 7 21 3 -1.</_>
                <_>
                  7 8 21 1 3.</_></rects>
              <tilted>0</tilted></feature>
            <threshold>-8.8215889409184456e-003</threshold>
            <left_val>0.3710694909095764</left_val>
            <right_val>-0.1206784993410111</right_val></_></_>
        <_>
          <_>
            <feature>
              <rects>
                <_>
                  11 3 14 6 -1.</_>
                <_>
                  11 5 14 2 3.</_></rects>
              <tilted>0</tilted></feature>
            <threshold>-0.0248342305421829</threshold>
            <left_val>0.4079892039299011</left_val>
            <right_val>-0.0795387774705887</right_val></_></_>
        <_>
          <_>
            <feature>
              <rects>
                <_>
                  30 11 6 8 -1.</_>
                <_>
                  33 11 3 8 2.</_></rects>
              <tilted>0</tilted></feature>
            <threshold>0.0120348101481795</threshold>
            <left_val>-0.1277748942375183</left_val>
            <right_val>0.3080165982246399</right_val></_></_>
        <_>
          <_>
            <feature>
              <rects>
                <_>
                  1 9 8 6 -1.</_>
                <_>
                  5 9 4 6 2.</_></rects>
              <tilted>0</tilted></feature>
            <threshold>9.2670535668730736e-003</threshold>
            <left_val>-0.1365301012992859</left_val>
            <right_val>0.3350661993026733</right_val></_></_>
        <_>
          <_>
            <feature>
              <rects>
                <_>
                  0 21 3 2 -1.</_>
                <_>
                  1 21 1 2 3.</_></rects>
              <tilted>0</tilted></feature>
            <threshold>-3.7817639531567693e-004</threshold>
            <left_val>-0.5061746835708618</left_val>
            <right_val>0.1003848984837532</right_val></_></_>
        <_>
          <_>
            <feature>
              <rects>
                <_>
                  9 18 13 4 -1.</_>
                <_>
                  9 19 13 2 2.</_></rects>
              <tilted>0</tilted></feature>
            <threshold>3.3095830585807562e-003</threshold>
            <left_val>-0.1501197963953018</left_val>
            <right_val>0.3022463023662567</right_val></_></_>
        <_>
          <_>
            <feature>
              <rects>
                <_>
                  8 1 24 16 -1.</_>
                <_>
                  8 9 24 8 2.</_></rects>
              <tilted>0</tilted></feature>
            <threshold>-0.1952475011348724</threshold>
            <left_val>0.3020862936973572</left_val>
            <right_val>-0.1028266027569771</right_val></_></_>
        <_>
          <_>
            <feature>
              <rects>
                <_>
                  4 13 6 4 -1.</_>
                <_>
                  3 14 6 2 2.</_></rects>
              <tilted>1</tilted></feature>
            <threshold>-6.9806929677724838e-003</threshold>
            <left_val>0.4340210855007172</left_val>
            <right_val>-0.1062040030956268</right_val></_></_>
        <_>
          <_>
            <feature>
              <rects>
                <_>
                  33 18 3 2 -1.</_>
                <_>
                  34 18 1 2 3.</_></rects>
              <tilted>0</tilted></feature>
            <threshold>-1.8300699593964964e-004</threshold>
            <left_val>-0.3555513918399811</left_val>
            <right_val>0.1088816002011299</right_val></_></_>
        <_>
          <_>
            <feature>
              <rects>
                <_>
                  9 21 3 1 -1.</_>
                <_>
                  10 21 1 1 3.</_></rects>
              <tilted>0</tilted></feature>
            <threshold>-2.0330339611973614e-004</threshold>
            <left_val>-0.4622462987899780</left_val>
            <right_val>0.0675964131951332</right_val></_></_>
        <_>
          <_>
            <feature>
              <rects>
                <_>
                  4 12 16 8 -1.</_>
                <_>
                  4 12 8 4 2.</_>
                <_>
                  12 16 8 4 2.</_></rects>
              <tilted>0</tilted></feature>
            <threshold>-0.0151990102604032</threshold>
            <left_val>0.2620047926902771</left_val>
            <right_val>-0.1517197936773300</right_val></_></_>
        <_>
          <_>
            <feature>
              <rects>
                <_>
                  11 10 16 3 -1.</_>
                <_>
                  11 11 16 1 3.</_></rects>
              <tilted>0</tilted></feature>
            <threshold>0.0126889096572995</threshold>
            <left_val>-0.0637775063514709</left_val>
            <right_val>0.4812654852867127</right_val></_></_>
        <_>
          <_>
            <feature>
              <rects>
                <_>
                  8 4 19 3 -1.</_>
                <_>
                  8 5 19 1 3.</_></rects>
              <tilted>0</tilted></feature>
            <threshold>6.5675280056893826e-003</threshold>
            <left_val>-0.0958758592605591</left_val>
            <right_val>0.3689323961734772</right_val></_></_>
        <_>
          <_>
            <feature>
              <rects>
                <_>
                  20 8 4 7 -1.</_>
                <_>
                  21 9 2 7 2.</_></rects>
              <tilted>1</tilted></feature>
            <threshold>-8.8011939078569412e-003</threshold>
            <left_val>0.4715017080307007</left_val>
            <right_val>-0.0775266364216805</right_val></_></_>
        <_>
          <_>
            <feature>
              <rects>
                <_>
                  11 23 9 1 -1.</_>
                <_>
                  14 23 3 1 3.</_></rects>
              <tilted>0</tilted></feature>
            <threshold>-2.0556470844894648e-003</threshold>
            <left_val>-0.5613113045692444</left_val>
            <right_val>0.0652067065238953</right_val></_></_>
        <_>
          <_>
            <feature>
              <rects>
                <_>
                  21 17 12 2 -1.</_>
                <_>
                  25 17 4 2 3.</_></rects>
              <tilted>0</tilted></feature>
            <threshold>-3.0882179271429777e-003</threshold>
            <left_val>0.2163483053445816</left_val>
            <right_val>-0.1480453014373779</right_val></_></_>
        <_>
          <_>
            <feature>
              <rects>
                <_>
                  15 17 12 2 -1.</_>
                <_>
                  18 17 6 2 2.</_></rects>
              <tilted>0</tilted></feature>
            <threshold>-2.6131849735975266e-003</threshold>
            <left_val>0.2848942875862122</left_val>
            <right_val>-0.1117196008563042</right_val></_></_>
        <_>
          <_>
            <feature>
              <rects>
                <_>
                  4 0 2 1 -1.</_>
                <_>
                  5 0 1 1 2.</_></rects>
              <tilted>0</tilted></feature>
            <threshold>-3.9537968405056745e-005</threshold>
            <left_val>-0.2670367062091827</left_val>
            <right_val>0.1157206967473030</right_val></_></_>
        <_>
          <_>
            <feature>
              <rects>
                <_>
                  31 10 2 6 -1.</_>
                <_>
                  32 10 1 6 2.</_></rects>
              <tilted>0</tilted></feature>
            <threshold>-9.6517316706012934e-005</threshold>
            <left_val>0.2061278969049454</left_val>
            <right_val>-0.1652490943670273</right_val></_></_>
        <_>
          <_>
            <feature>
              <rects>
                <_>
                  10 13 21 4 -1.</_>
                <_>
                  10 14 21 2 2.</_></rects>
              <tilted>0</tilted></feature>
            <threshold>-6.1726891435682774e-003</threshold>
            <left_val>0.2480790019035339</left_val>
            <right_val>-0.1303614974021912</right_val></_></_>
        <_>
          <_>
            <feature>
              <rects>
                <_>
                  33 15 3 6 -1.</_>
                <_>
                  34 17 1 2 9.</_></rects>
              <tilted>0</tilted></feature>
            <threshold>4.9017379060387611e-003</threshold>
            <left_val>0.0981997698545456</left_val>
            <right_val>-0.3502413034439087</right_val></_></_>
        <_>
          <_>
            <feature>
              <rects>
                <_>
                  6 12 23 3 -1.</_>
                <_>
                  6 13 23 1 3.</_></rects>
              <tilted>0</tilted></feature>
            <threshold>-6.9129201583564281e-003</threshold>
            <left_val>0.2864885032176971</left_val>
            <right_val>-0.1149498969316483</right_val></_></_>
        <_>
          <_>
            <feature>
              <rects>
                <_>
                  1 16 24 5 -1.</_>
                <_>
                  9 16 8 5 3.</_></rects>
              <tilted>0</tilted></feature>
            <threshold>-0.0193148795515299</threshold>
            <left_val>0.2243465930223465</left_val>
            <right_val>-0.1487928032875061</right_val></_></_>
        <_>
          <_>
            <feature>
              <rects>
                <_>
                  4 8 20 6 -1.</_>
                <_>
                  4 10 20 2 3.</_></rects>
              <tilted>0</tilted></feature>
            <threshold>-0.0165104102343321</threshold>
            <left_val>0.3223950862884522</left_val>
            <right_val>-0.1301548033952713</right_val></_></_>
        <_>
          <_>
            <feature>
              <rects>
                <_>
                  20 8 12 12 -1.</_>
                <_>
                  20 14 12 6 2.</_></rects>
              <tilted>0</tilted></feature>
            <threshold>-0.0402497984468937</threshold>
            <left_val>0.1946672052145004</left_val>
            <right_val>-0.1768856048583984</right_val></_></_>
        <_>
          <_>
            <feature>
              <rects>
                <_>
                  10 0 24 8 -1.</_>
                <_>
                  10 4 24 4 2.</_></rects>
              <tilted>0</tilted></feature>
            <threshold>-0.0766347572207451</threshold>
            <left_val>0.3504317104816437</left_val>
            <right_val>-0.1332828998565674</right_val></_></_>
        <_>
          <_>
            <feature>
              <rects>
                <_>
                  9 18 19 2 -1.</_>
                <_>
                  9 19 19 1 2.</_></rects>
              <tilted>0</tilted></feature>
            <threshold>-2.9310530517250299e-003</threshold>
            <left_val>0.2843370139598846</left_val>
            <right_val>-0.1292745023965836</right_val></_></_>
        <_>
          <_>
            <feature>
              <rects>
                <_>
                  5 11 2 2 -1.</_>
                <_>
                  5 12 2 1 2.</_></rects>
              <tilted>0</tilted></feature>
            <threshold>-6.4968067454174161e-004</threshold>
            <left_val>0.2839820981025696</left_val>
            <right_val>-0.1365101933479309</right_val></_></_>
        <_>
          <_>
            <feature>
              <rects>
                <_>
                  13 10 21 10 -1.</_>
                <_>
                  20 10 7 10 3.</_></rects>
              <tilted>0</tilted></feature>
            <threshold>-0.0151155497878790</threshold>
            <left_val>0.2018339037895203</left_val>
            <right_val>-0.1931172013282776</right_val></_></_>
        <_>
          <_>
            <feature>
              <rects>
                <_>
                  0 17 1 4 -1.</_>
                <_>
                  0 19 1 2 2.</_></rects>
              <tilted>0</tilted></feature>
            <threshold>-1.4512400375679135e-003</threshold>
            <left_val>-0.5212637186050415</left_val>
            <right_val>0.0651823729276657</right_val></_></_>
        <_>
          <_>
            <feature>
              <rects>
                <_>
                  32 10 4 9 -1.</_>
                <_>
                  32 10 2 9 2.</_></rects>
              <tilted>1</tilted></feature>
            <threshold>0.0280183590948582</threshold>
            <left_val>-0.0642437934875488</left_val>
            <right_val>0.6049491763114929</right_val></_></_>
        <_>
          <_>
            <feature>
              <rects>
                <_>
                  22 21 3 2 -1.</_>
                <_>
                  23 21 1 2 3.</_></rects>
              <tilted>0</tilted></feature>
            <threshold>2.4273450253531337e-004</threshold>
            <left_val>0.0933644622564316</left_val>
            <right_val>-0.3773795962333679</right_val></_></_></trees>
      <stage_threshold>-0.9191532135009766</stage_threshold>
      <parent>6</parent>
      <next>-1</next></_>
    <_>
      <trees>
        <_>
          <_>
            <feature>
              <rects>
                <_>
                  0 17 14 5 -1.</_>
                <_>
                  7 17 7 5 2.</_></rects>
              <tilted>0</tilted></feature>
            <threshold>-5.6197862140834332e-003</threshold>
            <left_val>0.2110657989978790</left_val>
            <right_val>-0.3059267103672028</right_val></_></_>
        <_>
          <_>
            <feature>
              <rects>
                <_>
                  30 16 6 8 -1.</_>
                <_>
                  30 16 3 4 2.</_>
                <_>
                  33 20 3 4 2.</_></rects>
              <tilted>0</tilted></feature>
            <threshold>-8.9181330986320972e-004</threshold>
            <left_val>0.1813251972198486</left_val>
            <right_val>-0.2205131947994232</right_val></_></_>
        <_>
          <_>
            <feature>
              <rects>
                <_>
                  0 23 4 1 -1.</_>
                <_>
                  2 23 2 1 2.</_></rects>
              <tilted>0</tilted></feature>
            <threshold>4.6980749175418168e-005</threshold>
            <left_val>-0.1679951995611191</left_val>
            <right_val>0.2257021963596344</right_val></_></_>
        <_>
          <_>
            <feature>
              <rects>
                <_>
                  11 23 3 1 -1.</_>
                <_>
                  12 23 1 1 3.</_></rects>
              <tilted>0</tilted></feature>
            <threshold>-2.4143840710166842e-004</threshold>
            <left_val>-0.5557895898818970</left_val>
            <right_val>0.0705408006906509</right_val></_></_>
        <_>
          <_>
            <feature>
              <rects>
                <_>
                  33 21 3 1 -1.</_>
                <_>
                  34 21 1 1 3.</_></rects>
              <tilted>0</tilted></feature>
            <threshold>-1.2935740232933313e-004</threshold>
            <left_val>-0.4031394124031067</left_val>
            <right_val>0.0928384065628052</right_val></_></_>
        <_>
          <_>
            <feature>
              <rects>
                <_>
                  33 20 3 2 -1.</_>
                <_>
                  34 20 1 2 3.</_></rects>
              <tilted>0</tilted></feature>
            <threshold>3.2622209982946515e-004</threshold>
            <left_val>0.1075256019830704</left_val>
            <right_val>-0.3393535912036896</right_val></_></_>
        <_>
          <_>
            <feature>
              <rects>
                <_>
                  1 12 8 10 -1.</_>
                <_>
                  3 12 4 10 2.</_></rects>
              <tilted>0</tilted></feature>
            <threshold>-3.8656711112707853e-003</threshold>
            <left_val>0.2365884929895401</left_val>
            <right_val>-0.1407092958688736</right_val></_></_>
        <_>
          <_>
            <feature>
              <rects>
                <_>
                  34 23 2 1 -1.</_>
                <_>
                  35 23 1 1 2.</_></rects>
              <tilted>0</tilted></feature>
            <threshold>-1.6009620594559237e-005</threshold>
            <left_val>0.2024288028478622</left_val>
            <right_val>-0.1581275016069412</right_val></_></_>
        <_>
          <_>
            <feature>
              <rects>
                <_>
                  27 0 4 1 -1.</_>
                <_>
                  29 0 2 1 2.</_></rects>
              <tilted>0</tilted></feature>
            <threshold>7.1732728974893689e-004</threshold>
            <left_val>0.0371570885181427</left_val>
            <right_val>-0.5204495191574097</right_val></_></_>
        <_>
          <_>
            <feature>
              <rects>
                <_>
                  30 10 6 10 -1.</_>
                <_>
                  32 10 2 10 3.</_></rects>
              <tilted>0</tilted></feature>
            <threshold>-0.0102891800925136</threshold>
            <left_val>0.4253407120704651</left_val>
            <right_val>-0.0739835426211357</right_val></_></_>
        <_>
          <_>
            <feature>
              <rects>
                <_>
                  12 13 24 4 -1.</_>
                <_>
                  18 13 12 4 2.</_></rects>
              <tilted>0</tilted></feature>
            <threshold>-0.0155263599008322</threshold>
            <left_val>0.2268702983856201</left_val>
            <right_val>-0.1540655046701431</right_val></_></_>
        <_>
          <_>
            <feature>
              <rects>
                <_>
                  10 6 8 3 -1.</_>
                <_>
                  10 7 8 1 3.</_></rects>
              <tilted>0</tilted></feature>
            <threshold>-2.9449749272316694e-003</threshold>
            <left_val>0.3090929090976715</left_val>
            <right_val>-0.1098250970244408</right_val></_></_>
        <_>
          <_>
            <feature>
              <rects>
                <_>
                  14 7 5 4 -1.</_>
                <_>
                  14 8 5 2 2.</_></rects>
              <tilted>0</tilted></feature>
            <threshold>-3.9156759157776833e-003</threshold>
            <left_val>0.3318462073802948</left_val>
            <right_val>-0.1228012964129448</right_val></_></_>
        <_>
          <_>
            <feature>
              <rects>
                <_>
                  0 23 8 1 -1.</_>
                <_>
                  2 23 4 1 2.</_></rects>
              <tilted>0</tilted></feature>
            <threshold>1.7595810350030661e-003</threshold>
            <left_val>0.0616861097514629</left_val>
            <right_val>-0.6468185186386108</right_val></_></_>
        <_>
          <_>
            <feature>
              <rects>
                <_>
                  12 5 15 6 -1.</_>
                <_>
                  12 7 15 2 3.</_></rects>
              <tilted>0</tilted></feature>
            <threshold>0.0399530306458473</threshold>
            <left_val>-0.0790552422404289</left_val>
            <right_val>0.4710881114006043</right_val></_></_>
        <_>
          <_>
            <feature>
              <rects>
                <_>
                  15 19 20 1 -1.</_>
                <_>
                  25 19 10 1 2.</_></rects>
              <tilted>0</tilted></feature>
            <threshold>2.8275339864194393e-003</threshold>
            <left_val>-0.1695246994495392</left_val>
            <right_val>0.2031759023666382</right_val></_></_>
        <_>
          <_>
            <feature>
              <rects>
                <_>
                  8 8 28 8 -1.</_>
                <_>
                  15 8 14 8 2.</_></rects>
              <tilted>0</tilted></feature>
            <threshold>0.0296458005905151</threshold>
            <left_val>-0.1235333979129791</left_val>
            <right_val>0.2635923027992249</right_val></_></_>
        <_>
          <_>
            <feature>
              <rects>
                <_>
                  17 0 4 13 -1.</_>
                <_>
                  17 0 2 13 2.</_></rects>
              <tilted>1</tilted></feature>
            <threshold>0.0295493304729462</threshold>
            <left_val>-0.0759709626436234</left_val>
            <right_val>0.4018433094024658</right_val></_></_>
        <_>
          <_>
            <feature>
              <rects>
                <_>
                  0 19 3 2 -1.</_>
                <_>
                  1 19 1 2 3.</_></rects>
              <tilted>0</tilted></feature>
            <threshold>-1.9567880372051150e-004</threshold>
            <left_val>-0.3747408092021942</left_val>
            <right_val>0.0824854299426079</right_val></_></_>
        <_>
          <_>
            <feature>
              <rects>
                <_>
                  12 21 13 3 -1.</_>
                <_>
                  12 22 13 1 3.</_></rects>
              <tilted>0</tilted></feature>
            <threshold>-4.1809747926890850e-003</threshold>
            <left_val>0.3582657873630524</left_val>
            <right_val>-0.0978116318583488</right_val></_></_>
        <_>
          <_>
            <feature>
              <rects>
                <_>
                  6 4 12 5 -1.</_>
                <_>
                  10 8 4 5 3.</_></rects>
              <tilted>1</tilted></feature>
            <threshold>0.0502715893089771</threshold>
            <left_val>-0.1031405031681061</left_val>
            <right_val>0.3316420912742615</right_val></_></_>
        <_>
          <_>
            <feature>
              <rects>
                <_>
                  30 12 6 3 -1.</_>
                <_>
                  32 12 2 3 3.</_></rects>
              <tilted>0</tilted></feature>
            <threshold>1.4670180389657617e-003</threshold>
            <left_val>-0.1249008029699326</left_val>
            <right_val>0.2626560926437378</right_val></_></_>
        <_>
          <_>
            <feature>
              <rects>
                <_>
                  0 19 3 3 -1.</_>
                <_>
                  1 19 1 3 3.</_></rects>
              <tilted>0</tilted></feature>
            <threshold>2.8995348839089274e-004</threshold>
            <left_val>0.1157049015164375</left_val>
            <right_val>-0.2867206037044525</right_val></_></_>
        <_>
          <_>
            <feature>
              <rects>
                <_>
                  13 16 9 3 -1.</_>
                <_>
                  16 17 3 1 9.</_></rects>
              <tilted>0</tilted></feature>
            <threshold>-6.6509558819234371e-003</threshold>
            <left_val>0.2492285072803497</left_val>
            <right_val>-0.1225901991128922</right_val></_></_>
        <_>
          <_>
            <feature>
              <rects>
                <_>
                  10 23 6 1 -1.</_>
                <_>
                  12 23 2 1 3.</_></rects>
              <tilted>0</tilted></feature>
            <threshold>2.0421929366420954e-004</threshold>
            <left_val>0.0905451402068138</left_val>
            <right_val>-0.3156163096427918</right_val></_></_>
        <_>
          <_>
            <feature>
              <rects>
                <_>
                  17 16 6 2 -1.</_>
                <_>
                  19 16 2 2 3.</_></rects>
              <tilted>0</tilted></feature>
            <threshold>-4.6324590221047401e-003</threshold>
            <left_val>0.4996334910392761</left_val>
            <right_val>-0.0586018711328506</right_val></_></_>
        <_>
          <_>
            <feature>
              <rects>
                <_>
                  6 14 5 4 -1.</_>
                <_>
                  5 15 5 2 2.</_></rects>
              <tilted>1</tilted></feature>
            <threshold>1.1673850240185857e-003</threshold>
            <left_val>-0.1278897970914841</left_val>
            <right_val>0.2266398966312408</right_val></_></_>
        <_>
          <_>
            <feature>
              <rects>
                <_>
                  2 0 15 22 -1.</_>
                <_>
                  2 11 15 11 2.</_></rects>
              <tilted>0</tilted></feature>
            <threshold>-0.1809701025485992</threshold>
            <left_val>0.2454068958759308</left_val>
            <right_val>-0.1255096942186356</right_val></_></_>
        <_>
          <_>
            <feature>
              <rects>
                <_>
                  6 11 7 4 -1.</_>
                <_>
                  5 12 7 2 2.</_></rects>
              <tilted>1</tilted></feature>
            <threshold>3.3161439932882786e-003</threshold>
            <left_val>-0.1098838970065117</left_val>
            <right_val>0.3205004036426544</right_val></_></_>
        <_>
          <_>
            <feature>
              <rects>
                <_>
                  4 10 9 4 -1.</_>
                <_>
                  3 11 9 2 2.</_></rects>
              <tilted>1</tilted></feature>
            <threshold>-7.0859249681234360e-003</threshold>
            <left_val>0.3022865056991577</left_val>
            <right_val>-0.1092761009931564</right_val></_></_>
        <_>
          <_>
            <feature>
              <rects>
                <_>
                  13 23 2 1 -1.</_>
                <_>
                  14 23 1 1 2.</_></rects>
              <tilted>0</tilted></feature>
            <threshold>7.8938472142908722e-005</threshold>
            <left_val>0.0862185284495354</left_val>
            <right_val>-0.3680311143398285</right_val></_></_>
        <_>
          <_>
            <feature>
              <rects>
                <_>
                  8 10 16 2 -1.</_>
                <_>
                  8 10 8 1 2.</_>
                <_>
                  16 11 8 1 2.</_></rects>
              <tilted>0</tilted></feature>
            <threshold>3.5276880953460932e-003</threshold>
            <left_val>-0.1077437028288841</left_val>
            <right_val>0.2865070104598999</right_val></_></_>
        <_>
          <_>
            <feature>
              <rects>
                <_>
                  33 13 3 9 -1.</_>
                <_>
                  34 16 1 3 9.</_></rects>
              <tilted>0</tilted></feature>
            <threshold>0.0125539796426892</threshold>
            <left_val>0.0704423412680626</left_val>
            <right_val>-0.4309279024600983</right_val></_></_>
        <_>
          <_>
            <feature>
              <rects>
                <_>
                  2 23 32 1 -1.</_>
                <_>
                  10 23 16 1 2.</_></rects>
              <tilted>0</tilted></feature>
            <threshold>6.5107672708109021e-004</threshold>
            <left_val>-0.1292497068643570</left_val>
            <right_val>0.2274664938449860</right_val></_></_>
        <_>
          <_>
            <feature>
              <rects>
                <_>
                  29 13 2 2 -1.</_>
                <_>
                  29 13 1 1 2.</_>
                <_>
                  30 14 1 1 2.</_></rects>
              <tilted>0</tilted></feature>
            <threshold>-9.9353397672530264e-005</threshold>
            <left_val>0.2193125933408737</left_val>
            <right_val>-0.1300458014011383</right_val></_></_>
        <_>
          <_>
            <feature>
              <rects>
                <_>
                  34 17 2 4 -1.</_>
                <_>
                  34 17 2 2 2.</_></rects>
              <tilted>1</tilted></feature>
            <threshold>-3.4511811099946499e-003</threshold>
            <left_val>-0.3476457893848419</left_val>
            <right_val>0.0820666030049324</right_val></_></_>
        <_>
          <_>
            <feature>
              <rects>
                <_>
                  21 18 9 6 -1.</_>
                <_>
                  21 20 9 2 3.</_></rects>
              <tilted>0</tilted></feature>
            <threshold>0.0198425203561783</threshold>
            <left_val>-0.0720179826021194</left_val>
            <right_val>0.4393126070499420</right_val></_></_>
        <_>
          <_>
            <feature>
              <rects>
                <_>
                  24 15 12 8 -1.</_>
                <_>
                  24 15 6 4 2.</_>
                <_>
                  30 19 6 4 2.</_></rects>
              <tilted>0</tilted></feature>
            <threshold>0.0122799603268504</threshold>
            <left_val>-0.0919548794627190</left_val>
            <right_val>0.3330715894699097</right_val></_></_>
        <_>
          <_>
            <feature>
              <rects>
                <_>
                  17 16 15 2 -1.</_>
                <_>
                  22 16 5 2 3.</_></rects>
              <tilted>0</tilted></feature>
            <threshold>-6.4104860648512840e-003</threshold>
            <left_val>0.2584421932697296</left_val>
            <right_val>-0.1155707016587257</right_val></_></_>
        <_>
          <_>
            <feature>
              <rects>
                <_>
                  17 23 4 1 -1.</_>
                <_>
                  19 23 2 1 2.</_></rects>
              <tilted>0</tilted></feature>
            <threshold>-5.6355132255703211e-004</threshold>
            <left_val>-0.5711106061935425</left_val>
            <right_val>0.0557468309998512</right_val></_></_>
        <_>
          <_>
            <feature>
              <rects>
                <_>
                  1 0 20 8 -1.</_>
                <_>
                  1 4 20 4 2.</_></rects>
              <tilted>0</tilted></feature>
            <threshold>-0.0554847791790962</threshold>
            <left_val>0.2712143957614899</left_val>
            <right_val>-0.1168477013707161</right_val></_></_>
        <_>
          <_>
            <feature>
              <rects>
                <_>
                  13 11 16 2 -1.</_>
                <_>
                  13 12 16 1 2.</_></rects>
              <tilted>0</tilted></feature>
            <threshold>-2.4370918981730938e-003</threshold>
            <left_val>0.1755100041627884</left_val>
            <right_val>-0.1652788966894150</right_val></_></_>
        <_>
          <_>
            <feature>
              <rects>
                <_>
                  4 9 3 2 -1.</_>
                <_>
                  5 10 1 2 3.</_></rects>
              <tilted>1</tilted></feature>
            <threshold>-1.3706069439649582e-003</threshold>
            <left_val>0.2647126019001007</left_val>
            <right_val>-0.1221653968095779</right_val></_></_>
        <_>
          <_>
            <feature>
              <rects>
                <_>
                  14 8 4 6 -1.</_>
                <_>
                  12 10 4 2 3.</_></rects>
              <tilted>1</tilted></feature>
            <threshold>0.0159778203815222</threshold>
            <left_val>-0.0795087665319443</left_val>
            <right_val>0.3670836985111237</right_val></_></_></trees>
      <stage_threshold>-1.0037560462951660</stage_threshold>
      <parent>7</parent>
      <next>-1</next></_>
    <_>
      <trees>
        <_>
          <_>
            <feature>
              <rects>
                <_>
                  0 16 8 8 -1.</_>
                <_>
                  0 16 4 4 2.</_>
                <_>
                  4 20 4 4 2.</_></rects>
              <tilted>0</tilted></feature>
            <threshold>5.1535489037632942e-003</threshold>
            <left_val>-0.1769730001688004</left_val>
            <right_val>0.2579587101936340</right_val></_></_>
        <_>
          <_>
            <feature>
              <rects>
                <_>
                  29 14 6 9 -1.</_>
                <_>
                  32 14 3 9 2.</_></rects>
              <tilted>0</tilted></feature>
            <threshold>5.6907059624791145e-003</threshold>
            <left_val>-0.1816055029630661</left_val>
            <right_val>0.1931018978357315</right_val></_></_>
        <_>
          <_>
            <feature>
              <rects>
                <_>
                  2 19 4 1 -1.</_>
                <_>
                  2 19 2 1 2.</_></rects>
              <tilted>1</tilted></feature>
            <threshold>3.3920719288289547e-003</threshold>
            <left_val>0.0641707107424736</left_val>
            <right_val>-0.4939248859882355</right_val></_></_>
        <_>
          <_>
            <feature>
              <rects>
                <_>
                  2 21 1 2 -1.</_>
                <_>
                  2 21 1 1 2.</_></rects>
              <tilted>1</tilted></feature>
            <threshold>6.3578868321201298e-006</threshold>
            <left_val>-0.1498360931873322</left_val>
            <right_val>0.2336284965276718</right_val></_></_>
        <_>
          <_>
            <feature>
              <rects>
                <_>
                  6 18 21 6 -1.</_>
                <_>
                  6 20 21 2 3.</_></rects>
              <tilted>0</tilted></feature>
            <threshold>-0.0150193003937602</threshold>
            <left_val>0.2296970039606094</left_val>
            <right_val>-0.1584475934505463</right_val></_></_>
        <_>
          <_>
            <feature>
              <rects>
                <_>
                  33 14 3 9 -1.</_>
                <_>
                  34 17 1 3 9.</_></rects>
              <tilted>0</tilted></feature>
            <threshold>-0.0139127299189568</threshold>
            <left_val>-0.4778048992156982</left_val>
            <right_val>0.0570783689618111</right_val></_></_>
        <_>
          <_>
            <feature>
              <rects>
                <_>
                  22 21 3 2 -1.</_>
                <_>
                  23 21 1 2 3.</_></rects>
              <tilted>0</tilted></feature>
            <threshold>-1.7679190204944462e-004</threshold>
            <left_val>-0.3088538050651550</left_val>
            <right_val>0.1235435977578163</right_val></_></_>
        <_>
          <_>
            <feature>
              <rects>
                <_>
                  16 18 2 2 -1.</_>
                <_>
                  16 18 2 1 2.</_></rects>
              <tilted>1</tilted></feature>
            <threshold>-6.1866792384535074e-004</threshold>
            <left_val>0.1828505992889404</left_val>
            <right_val>-0.1867648959159851</right_val></_></_>
        <_>
          <_>
            <feature>
              <rects>
                <_>
                  3 9 21 12 -1.</_>
                <_>
                  3 15 21 6 2.</_></rects>
              <tilted>0</tilted></feature>
            <threshold>-0.0481550581753254</threshold>
            <left_val>0.1574790030717850</left_val>
            <right_val>-0.2018384933471680</right_val></_></_>
        <_>
          <_>
            <feature>
              <rects>
                <_>
                  9 0 8 9 -1.</_>
                <_>
                  9 0 4 9 2.</_></rects>
              <tilted>1</tilted></feature>
            <threshold>0.1038494035601616</threshold>
            <left_val>-0.0602765008807182</left_val>
            <right_val>0.5924068093299866</right_val></_></_>
        <_>
          <_>
            <feature>
              <rects>
                <_>
                  25 7 8 2 -1.</_>
                <_>
                  25 7 4 1 2.</_>
                <_>
                  29 8 4 1 2.</_></rects>
              <tilted>0</tilted></feature>
            <threshold>-2.6088170707225800e-003</threshold>
            <left_val>0.4058279097080231</left_val>
            <right_val>-0.0843199193477631</right_val></_></_>
        <_>
          <_>
            <feature>
              <rects>
                <_>
                  4 23 3 1 -1.</_>
                <_>
                  5 23 1 1 3.</_></rects>
              <tilted>0</tilted></feature>
            <threshold>1.9023539789486676e-004</threshold>
            <left_val>0.0674130320549011</left_val>
            <right_val>-0.4638158082962036</right_val></_></_>
        <_>
          <_>
            <feature>
              <rects>
                <_>
                  4 10 7 3 -1.</_>
                <_>
                  3 11 7 1 3.</_></rects>
              <tilted>1</tilted></feature>
            <threshold>5.5903978645801544e-003</threshold>
            <left_val>-0.0880989208817482</left_val>
            <right_val>0.3701882958412170</right_val></_></_>
        <_>
          <_>
            <feature>
              <rects>
                <_>
                  8 13 16 3 -1.</_>
                <_>
                  8 14 16 1 3.</_></rects>
              <tilted>0</tilted></feature>
            <threshold>-2.8823299799114466e-003</threshold>
            <left_val>0.2227610051631928</left_val>
            <right_val>-0.1219640001654625</right_val></_></_>
        <_>
          <_>
            <feature>
              <rects>
                <_>
                  1 13 4 10 -1.</_>
                <_>
                  3 13 2 10 2.</_></rects>
              <tilted>0</tilted></feature>
            <threshold>-5.7246149517595768e-003</threshold>
            <left_val>0.2531982958316803</left_val>
            <right_val>-0.1080953031778336</right_val></_></_>
        <_>
          <_>
            <feature>
              <rects>
                <_>
                  30 10 6 2 -1.</_>
                <_>
                  33 10 3 2 2.</_></rects>
              <tilted>0</tilted></feature>
            <threshold>-7.5879209907725453e-004</threshold>
            <left_val>0.2096914947032929</left_val>
            <right_val>-0.1351805031299591</right_val></_></_>
        <_>
          <_>
            <feature>
              <rects>
                <_>
                  34 18 2 3 -1.</_>
                <_>
                  35 18 1 3 2.</_></rects>
              <tilted>0</tilted></feature>
            <threshold>-5.1247829105705023e-004</threshold>
            <left_val>-0.4741227924823761</left_val>
            <right_val>0.0766060724854469</right_val></_></_>
        <_>
          <_>
            <feature>
              <rects>
                <_>
                  22 0 14 4 -1.</_>
                <_>
                  22 0 14 2 2.</_></rects>
              <tilted>1</tilted></feature>
            <threshold>0.0395047105848789</threshold>
            <left_val>-0.0764704868197441</left_val>
            <right_val>0.4756219983100891</right_val></_></_>
        <_>
          <_>
            <feature>
              <rects>
                <_>
                  30 22 6 2 -1.</_>
                <_>
                  33 22 3 2 2.</_></rects>
              <tilted>0</tilted></feature>
            <threshold>-2.3768619576003402e-004</threshold>
            <left_val>0.2278541028499603</left_val>
            <right_val>-0.1312772929668427</right_val></_></_>
        <_>
          <_>
            <feature>
              <rects>
                <_>
                  5 23 4 1 -1.</_>
                <_>
                  6 23 2 1 2.</_></rects>
              <tilted>0</tilted></feature>
            <threshold>4.1106168646365404e-004</threshold>
            <left_val>0.0444023087620735</left_val>
            <right_val>-0.6288998126983643</right_val></_></_>
        <_>
          <_>
            <feature>
              <rects>
                <_>
                  9 10 15 12 -1.</_>
                <_>
                  9 13 15 6 2.</_></rects>
              <tilted>0</tilted></feature>
            <threshold>0.1201039999723434</threshold>
            <left_val>-0.0411423891782761</left_val>
            <right_val>0.8143765926361084</right_val></_></_>
        <_>
          <_>
            <feature>
              <rects>
                <_>
                  10 0 6 10 -1.</_>
                <_>
                  10 0 3 10 2.</_></rects>
              <tilted>1</tilted></feature>
            <threshold>-0.0414674691855907</threshold>
            <left_val>0.4577754139900208</left_val>
            <right_val>-0.0512398108839989</right_val></_></_>
        <_>
          <_>
            <feature>
              <rects>
                <_>
                  27 11 8 2 -1.</_>
                <_>
                  29 11 4 2 2.</_></rects>
              <tilted>0</tilted></feature>
            <threshold>-1.3768100179731846e-003</threshold>
            <left_val>0.2304998934268951</left_val>
            <right_val>-0.1253063976764679</right_val></_></_>
        <_>
          <_>
            <feature>
              <rects>
                <_>
                  26 12 8 2 -1.</_>
                <_>
                  28 12 4 2 2.</_></rects>
              <tilted>0</tilted></feature>
            <threshold>9.5783232245594263e-004</threshold>
            <left_val>-0.1264797002077103</left_val>
            <right_val>0.2116784006357193</right_val></_></_>
        <_>
          <_>
            <feature>
              <rects>
                <_>
                  26 0 4 1 -1.</_>
                <_>
                  27 0 2 1 2.</_></rects>
              <tilted>0</tilted></feature>
            <threshold>5.6702428992139176e-005</threshold>
            <left_val>0.1071382015943527</left_val>
            <right_val>-0.2371412962675095</right_val></_></_>
        <_>
          <_>
            <feature>
              <rects>
                <_>
                  15 1 20 2 -1.</_>
                <_>
                  15 2 20 1 2.</_></rects>
              <tilted>0</tilted></feature>
            <threshold>-5.8960360474884510e-003</threshold>
            <left_val>0.3111585080623627</left_val>
            <right_val>-0.0881455391645432</right_val></_></_>
        <_>
          <_>
            <feature>
              <rects>
                <_>
                  17 16 9 2 -1.</_>
                <_>
                  20 16 3 2 3.</_></rects>
              <tilted>0</tilted></feature>
            <threshold>-5.0784288905560970e-003</threshold>
            <left_val>0.3461571931838989</left_val>
            <right_val>-0.0763199627399445</right_val></_></_>
        <_>
          <_>
            <feature>
              <rects>
                <_>
                  0 16 24 2 -1.</_>
                <_>
                  8 16 8 2 3.</_></rects>
              <tilted>0</tilted></feature>
            <threshold>-7.8465491533279419e-003</threshold>
            <left_val>0.1838849931955338</left_val>
            <right_val>-0.1522760987281799</right_val></_></_>
        <_>
          <_>
            <feature>
              <rects>
                <_>
                  14 22 3 2 -1.</_>
                <_>
                  15 22 1 2 3.</_></rects>
              <tilted>0</tilted></feature>
            <threshold>1.6322919691447169e-004</threshold>
            <left_val>0.0864612907171249</left_val>
            <right_val>-0.3447633981704712</right_val></_></_>
        <_>
          <_>
            <feature>
              <rects>
                <_>
                  23 1 2 4 -1.</_>
                <_>
                  22 2 2 2 2.</_></rects>
              <tilted>1</tilted></feature>
            <threshold>1.1445430573076010e-003</threshold>
            <left_val>-0.1124794036149979</left_val>
            <right_val>0.2518501877784729</right_val></_></_>
        <_>
          <_>
            <feature>
              <rects>
                <_>
                  17 12 2 2 -1.</_>
                <_>
                  17 13 2 1 2.</_></rects>
              <tilted>0</tilted></feature>
            <threshold>-5.3694407688453794e-004</threshold>
            <left_val>0.1984308063983917</left_val>
            <right_val>-0.1398871988058090</right_val></_></_>
        <_>
          <_>
            <feature>
              <rects>
                <_>
                  1 9 18 10 -1.</_>
                <_>
                  7 9 6 10 3.</_></rects>
              <tilted>0</tilted></feature>
            <threshold>-0.0918181389570236</threshold>
            <left_val>-0.5484216809272766</left_val>
            <right_val>0.0480860099196434</right_val></_></_>
        <_>
          <_>
            <feature>
              <rects>
                <_>
                  18 15 18 2 -1.</_>
                <_>
                  24 15 6 2 3.</_></rects>
              <tilted>0</tilted></feature>
