<?xml version="1.0"?>
<opencv_storage>
<ped14 type_id="opencv-haar-classifier">
  <size>
    24 48</size>
  <stages>
    <_>
      <trees>
        <_>
          <_>
            <feature>
              <rects>
                <_>
                  8 6 8 12 -1.</_>
                <_>
                  8 10 8 4 3.</_></rects>
              <tilted>0</tilted></feature>
            <threshold>0.0234734397381544</threshold>
            <left_val>-0.4596883952617645</left_val>
            <right_val>0.7824568748474121</right_val></_></_>
        <_>
          <_>
            <feature>
              <rects>
                <_>
                  3 12 18 36 -1.</_>
                <_>
                  9 24 6 12 9.</_></rects>
              <tilted>0</tilted></feature>
            <threshold>-0.2653518021106720</threshold>
            <left_val>0.6818851828575134</left_val>
            <right_val>-0.4827929139137268</right_val></_></_>
        <_>
          <_>
            <feature>
              <rects>
                <_>
                  10 4 4 6 -1.</_>
                <_>
                  10 6 4 2 3.</_></rects>
              <tilted>0</tilted></feature>
            <threshold>-1.9595010671764612e-003</threshold>
            <left_val>0.5597611069679260</left_val>
            <right_val>-0.3628788888454437</right_val></_></_>
        <_>
          <_>
            <feature>
              <rects>
                <_>
                  11 41 4 1 -1.</_>
                <_>
                  11 41 2 1 2.</_></rects>
              <tilted>1</tilted></feature>
            <threshold>-4.8405880806967616e-004</threshold>
            <left_val>0.4144057929515839</left_val>
            <right_val>-0.4812892973423004</right_val></_></_>
        <_>
          <_>
            <feature>
              <rects>
                <_>
                  4 5 16 12 -1.</_>
                <_>
                  8 5 8 12 2.</_></rects>
              <tilted>0</tilted></feature>
            <threshold>0.0442695803940296</threshold>
            <left_val>-0.1753917038440704</left_val>
            <right_val>0.7394701838493347</right_val></_></_>
        <_>
          <_>
            <feature>
              <rects>
                <_>
                  9 14 6 34 -1.</_>
                <_>
                  9 31 6 17 2.</_></rects>
              <tilted>0</tilted></feature>
            <threshold>0.0352512709796429</threshold>
            <left_val>-0.4209963977336884</left_val>
            <right_val>0.4588531851768494</right_val></_></_>
        <_>
          <_>
            <feature>
              <rects>
                <_>
                  0 39 24 6 -1.</_>
                <_>
                  8 41 8 2 9.</_></rects>
              <tilted>0</tilted></feature>
            <threshold>-6.6189831122756004e-003</threshold>
            <left_val>0.3879474103450775</left_val>
            <right_val>-0.4951736032962799</right_val></_></_></trees>
      <stage_threshold>-1.1152410507202148</stage_threshold>
      <parent>-1</parent>
      <next>-1</next></_>
    <_>
      <trees>
        <_>
          <_>
            <feature>
              <rects>
                <_>
                  2 6 21 12 -1.</_>
                <_>
                  9 10 7 4 9.</_></rects>
              <tilted>0</tilted></feature>
            <threshold>0.1728443950414658</threshold>
            <left_val>-0.3138900995254517</left_val>
            <right_val>0.8192561268806458</right_val></_></_>
        <_>
          <_>
            <feature>
              <rects>
                <_>
                  3 11 18 36 -1.</_>
                <_>
                  9 23 6 12 9.</_></rects>
              <tilted>0</tilted></feature>
            <threshold>-0.3143096864223480</threshold>
            <left_val>0.5923045873641968</left_val>
            <right_val>-0.4166294038295746</right_val></_></_>
        <_>
          <_>
            <feature>
              <rects>
                <_>
                  14 41 1 4 -1.</_>
                <_>
                  14 41 1 2 2.</_></rects>
              <tilted>1</tilted></feature>
            <threshold>-2.8649080195464194e-004</threshold>
            <left_val>0.3561880886554718</left_val>
            <right_val>-0.4812746047973633</right_val></_></_>
        <_>
          <_>
            <feature>
              <rects>
                <_>
                  10 3 4 9 -1.</_>
                <_>
                  10 6 4 3 3.</_></rects>
              <tilted>0</tilted></feature>
            <threshold>-3.3625150099396706e-003</threshold>
            <left_val>0.3845044970512390</left_val>
            <right_val>-0.3809604048728943</right_val></_></_>
        <_>
          <_>
            <feature>
              <rects>
                <_>
                  12 45 3 1 -1.</_>
                <_>
                  13 45 1 1 3.</_></rects>
              <tilted>0</tilted></feature>
            <threshold>1.7797820328269154e-004</threshold>
            <left_val>0.2057971060276032</left_val>
            <right_val>-0.7566093802452087</right_val></_></_>
        <_>
          <_>
            <feature>
              <rects>
                <_>
                  12 45 3 1 -1.</_>
                <_>
                  13 45 1 1 3.</_></rects>
              <tilted>0</tilted></feature>
            <threshold>-1.2936060375068337e-004</threshold>
            <left_val>-0.8015971183776856</left_val>
            <right_val>0.1544182002544403</right_val></_></_>
        <_>
          <_>
            <feature>
              <rects>
                <_>
                  3 4 18 33 -1.</_>
                <_>
                  9 4 6 33 3.</_></rects>
              <tilted>0</tilted></feature>
            <threshold>-0.1936444044113159</threshold>
            <left_val>0.6416246294975281</left_val>
            <right_val>-0.2176927030086517</right_val></_></_>
        <_>
          <_>
            <feature>
              <rects>
                <_>
                  2 8 20 25 -1.</_>
                <_>
                  7 8 10 25 2.</_></rects>
              <tilted>0</tilted></feature>
            <threshold>0.1127640977501869</threshold>
            <left_val>-0.1769054979085922</left_val>
            <right_val>0.7581492066383362</right_val></_></_>
        <_>
          <_>
            <feature>
              <rects>
                <_>
                  9 20 6 24 -1.</_>
                <_>
                  9 32 6 12 2.</_></rects>
              <tilted>0</tilted></feature>
            <threshold>2.6965939905494452e-003</threshold>
            <left_val>-0.4185588955879211</left_val>
            <right_val>0.2935510873794556</right_val></_></_>
        <_>
          <_>
            <feature>
              <rects>
                <_>
                  9 42 2 2 -1.</_>
                <_>
                  9 42 2 1 2.</_></rects>
              <tilted>1</tilted></feature>
            <threshold>-1.6869060345925391e-004</threshold>
            <left_val>0.2912285029888153</left_val>
            <right_val>-0.4163244068622589</right_val></_></_></trees>
      <stage_threshold>-1.1139470338821411</stage_threshold>
      <parent>0</parent>
      <next>-1</next></_>
    <_>
      <trees>
        <_>
          <_>
            <feature>
              <rects>
                <_>
                  4 7 8 32 -1.</_>
                <_>
                  4 7 4 16 2.</_>
                <_>
                  8 23 4 16 2.</_></rects>
              <tilted>0</tilted></feature>
            <threshold>-0.0340447612106800</threshold>
            <left_val>0.6193531751632690</left_val>
            <right_val>-0.3676136136054993</right_val></_></_>
        <_>
          <_>
            <feature>
              <rects>
                <_>
                  7 8 10 8 -1.</_>
                <_>
                  7 10 10 4 2.</_></rects>
              <tilted>0</tilted></feature>
            <threshold>0.0133932000026107</threshold>
            <left_val>-0.2540256977081299</left_val>
            <right_val>0.5849776864051819</right_val></_></_>
        <_>
          <_>
            <feature>
              <rects>
                <_>
                  15 42 2 1 -1.</_>
                <_>
                  15 42 1 1 2.</_></rects>
              <tilted>1</tilted></feature>
            <threshold>-1.0754579852800816e-004</threshold>
            <left_val>0.3444586992263794</left_val>
            <right_val>-0.4849360883235931</right_val></_></_>
        <_>
          <_>
            <feature>
              <rects>
                <_>
                  7 5 9 8 -1.</_>
                <_>
                  10 5 3 8 3.</_></rects>
              <tilted>0</tilted></feature>
            <threshold>-0.0129616903141141</threshold>
            <left_val>0.5921689867973328</left_val>
            <right_val>-0.2238488048315048</right_val></_></_>
        <_>
          <_>
            <feature>
              <rects>
                <_>
                  11 45 3 2 -1.</_>
                <_>
                  12 45 1 2 3.</_></rects>
              <tilted>0</tilted></feature>
            <threshold>-3.2432770240120590e-004</threshold>
            <left_val>-0.8568618297576904</left_val>
            <right_val>0.1333575993776321</right_val></_></_>
        <_>
          <_>
            <feature>
              <rects>
                <_>
                  12 7 8 34 -1.</_>
                <_>
                  12 7 4 17 2.</_>
                <_>
                  16 24 4 17 2.</_></rects>
              <tilted>0</tilted></feature>
            <threshold>0.0455087088048458</threshold>
            <left_val>-0.2152332961559296</left_val>
            <right_val>0.5571305751800537</right_val></_></_>
        <_>
          <_>
            <feature>
              <rects>
                <_>
                  4 12 16 11 -1.</_>
                <_>
                  8 12 8 11 2.</_></rects>
              <tilted>0</tilted></feature>
            <threshold>-0.0379359312355518</threshold>
            <left_val>0.5649924278259277</left_val>
            <right_val>-0.2547649145126343</right_val></_></_>
        <_>
          <_>
            <feature>
              <rects>
                <_>
                  10 5 6 3 -1.</_>
                <_>
                  10 6 6 1 3.</_></rects>
              <tilted>0</tilted></feature>
            <threshold>-2.8751741047017276e-004</threshold>
            <left_val>0.3888112902641296</left_val>
            <right_val>-0.3216496109962463</right_val></_></_>
        <_>
          <_>
            <feature>
              <rects>
                <_>
                  11 44 3 3 -1.</_>
                <_>
                  12 44 1 3 3.</_></rects>
              <tilted>0</tilted></feature>
            <threshold>2.1587120136246085e-004</threshold>
            <left_val>0.1742285043001175</left_val>
            <right_val>-0.6300547719001770</right_val></_></_>
        <_>
          <_>
            <feature>
              <rects>
                <_>
                  2 18 20 9 -1.</_>
                <_>
                  7 18 10 9 2.</_></rects>
              <tilted>0</tilted></feature>
            <threshold>0.0297037903219461</threshold>
            <left_val>-0.1472108960151672</left_val>
            <right_val>0.5632026791572571</right_val></_></_>
        <_>
          <_>
            <feature>
              <rects>
                <_>
                  11 23 1 24 -1.</_>
                <_>
                  11 35 1 12 2.</_></rects>
              <tilted>0</tilted></feature>
            <threshold>2.8794601093977690e-003</threshold>
            <left_val>-0.4845553934574127</left_val>
            <right_val>0.2583653032779694</right_val></_></_>
        <_>
          <_>
            <feature>
              <rects>
                <_>
                  10 42 1 2 -1.</_>
                <_>
                  10 42 1 1 2.</_></rects>
              <tilted>1</tilted></feature>
            <threshold>-1.1347229883540422e-004</threshold>
            <left_val>0.2528794109821320</left_val>
            <right_val>-0.4731697142124176</right_val></_></_>
        <_>
          <_>
            <feature>
              <rects>
                <_>
                  9 11 6 8 -1.</_>
                <_>
                  9 15 6 4 2.</_></rects>
              <tilted>0</tilted></feature>
            <threshold>-1.7179100541397929e-004</threshold>
            <left_val>0.2342160046100617</left_val>
            <right_val>-0.4838142096996307</right_val></_></_>
        <_>
          <_>
            <feature>
              <rects>
                <_>
                  4 45 3 1 -1.</_>
                <_>
                  5 45 1 1 3.</_></rects>
              <tilted>0</tilted></feature>
            <threshold>-1.7284799832850695e-004</threshold>
            <left_val>-0.7431260943412781</left_val>
            <right_val>0.1332349032163620</right_val></_></_></trees>
      <stage_threshold>-1.1310969591140747</stage_threshold>
      <parent>1</parent>
      <next>-1</next></_>
    <_>
      <trees>
        <_>
          <_>
            <feature>
              <rects>
                <_>
                  5 8 12 4 -1.</_>
                <_>
                  5 10 12 2 2.</_></rects>
              <tilted>0</tilted></feature>
            <threshold>5.7756761088967323e-003</threshold>
            <left_val>-0.4457800090312958</left_val>
            <right_val>0.6323180794715881</right_val></_></_>
        <_>
          <_>
            <feature>
              <rects>
                <_>
                  6 21 12 12 -1.</_>
                <_>
                  10 25 4 4 9.</_></rects>
              <tilted>0</tilted></feature>
            <threshold>-0.0114600602537394</threshold>
            <left_val>0.4172509908676148</left_val>
            <right_val>-0.7178117036819458</right_val></_></_>
        <_>
          <_>
            <feature>
              <rects>
                <_>
                  12 42 2 1 -1.</_>
                <_>
                  12 42 1 1 2.</_></rects>
              <tilted>1</tilted></feature>
            <threshold>-1.0449830006109551e-004</threshold>
            <left_val>0.4512434005737305</left_val>
            <right_val>-0.5655375123023987</right_val></_></_>
        <_>
          <_>
            <feature>
              <rects>
                <_>
                  7 8 5 2 -1.</_>
                <_>
                  7 8 5 1 2.</_></rects>
              <tilted>1</tilted></feature>
            <threshold>1.3853859854862094e-004</threshold>
            <left_val>-0.4629535079002380</left_val>
            <right_val>0.3406389951705933</right_val></_></_>
        <_>
          <_>
            <feature>
              <rects>
                <_>
                  0 35 24 13 -1.</_>
                <_>
                  6 35 12 13 2.</_></rects>
              <tilted>0</tilted></feature>
            <threshold>-1.3504109811037779e-003</threshold>
            <left_val>0.2473037987947464</left_val>
            <right_val>-0.5636013150215149</right_val></_></_>
        <_>
          <_>
            <feature>
              <rects>
                <_>
                  8 3 6 6 -1.</_>
                <_>
                  8 5 6 2 3.</_></rects>
              <tilted>0</tilted></feature>
            <threshold>-1.4737769961357117e-003</threshold>
            <left_val>0.4060397148132324</left_val>
            <right_val>-0.3650141060352325</right_val></_></_>
        <_>
          <_>
            <feature>
              <rects>
                <_>
                  4 24 16 10 -1.</_>
                <_>
                  8 24 8 10 2.</_></rects>
              <tilted>0</tilted></feature>
            <threshold>0.0346714705228806</threshold>
            <left_val>-0.1425084024667740</left_val>
            <right_val>0.8769590258598328</right_val></_></_>
        <_>
          <_>
            <feature>
              <rects>
                <_>
                  11 22 2 26 -1.</_>
                <_>
                  11 35 2 13 2.</_></rects>
              <tilted>0</tilted></feature>
            <threshold>2.5575710460543633e-003</threshold>
            <left_val>-0.6736853122711182</left_val>
            <right_val>0.2996076047420502</right_val></_></_>
        <_>
          <_>
            <feature>
              <rects>
                <_>
                  12 11 6 12 -1.</_>
                <_>
                  14 15 2 4 9.</_></rects>
              <tilted>0</tilted></feature>
            <threshold>-2.6787640526890755e-003</threshold>
            <left_val>0.2474720031023026</left_val>
            <right_val>-0.5951203107833862</right_val></_></_>
        <_>
          <_>
            <feature>
              <rects>
                <_>
                  20 10 2 6 -1.</_>
                <_>
                  20 10 2 3 2.</_></rects>
              <tilted>1</tilted></feature>
            <threshold>-1.4402340166270733e-003</threshold>
            <left_val>0.5768039822578430</left_val>
            <right_val>-0.3955413103103638</right_val></_></_>
        <_>
          <_>
            <feature>
              <rects>
                <_>
                  9 6 4 3 -1.</_>
                <_>
                  9 7 4 1 3.</_></rects>
              <tilted>0</tilted></feature>
            <threshold>-1.3728690100833774e-004</threshold>
            <left_val>0.3748776912689209</left_val>
            <right_val>-0.3572379052639008</right_val></_></_>
        <_>
          <_>
            <feature>
              <rects>
                <_>
                  6 4 12 19 -1.</_>
                <_>
                  9 4 6 19 2.</_></rects>
              <tilted>0</tilted></feature>
            <threshold>-0.0272324997931719</threshold>
            <left_val>0.5718123912811279</left_val>
            <right_val>-0.2401470988988876</right_val></_></_></trees>
      <stage_threshold>-1.3561170101165771</stage_threshold>
      <parent>2</parent>
      <next>-1</next></_>
    <_>
      <trees>
        <_>
          <_>
            <feature>
              <rects>
                <_>
                  0 8 24 9 -1.</_>
                <_>
                  8 11 8 3 9.</_></rects>
              <tilted>0</tilted></feature>
            <threshold>0.2117712944746018</threshold>
            <left_val>-0.2361606955528259</left_val>
            <right_val>0.7850108146667481</right_val></_></_>
        <_>
          <_>
            <feature>
              <rects>
                <_>
                  4 24 16 14 -1.</_>
                <_>
                  8 24 8 14 2.</_></rects>
              <tilted>0</tilted></feature>
            <threshold>-0.0423156805336475</threshold>
            <left_val>0.4358982145786285</left_val>
            <right_val>-0.2731639146804810</right_val></_></_>
        <_>
          <_>
            <feature>
              <rects>
                <_>
                  6 46 6 2 -1.</_>
                <_>
                  8 46 2 2 3.</_></rects>
              <tilted>0</tilted></feature>
            <threshold>-5.8619899209588766e-004</threshold>
            <left_val>-0.6276752948760986</left_val>
            <right_val>0.1314149945974350</right_val></_></_>
        <_>
          <_>
            <feature>
              <rects>
                <_>
                  6 44 6 4 -1.</_>
                <_>
                  8 44 2 4 3.</_></rects>
              <tilted>0</tilted></feature>
            <threshold>8.9927128283306956e-004</threshold>
            <left_val>0.2336128056049347</left_val>
            <right_val>-0.5939121246337891</right_val></_></_>
        <_>
          <_>
            <feature>
              <rects>
                <_>
                  11 42 1 2 -1.</_>
                <_>
                  11 42 1 1 2.</_></rects>
              <tilted>1</tilted></feature>
            <threshold>-2.4537878925912082e-004</threshold>
            <left_val>0.2034965008497238</left_val>
            <right_val>-0.4042598903179169</right_val></_></_>
        <_>
          <_>
            <feature>
              <rects>
                <_>
                  9 31 6 8 -1.</_>
                <_>
                  11 31 2 8 3.</_></rects>
              <tilted>0</tilted></feature>
            <threshold>4.0146159008145332e-003</threshold>
            <left_val>-0.1580175012350082</left_val>
            <right_val>0.5380119085311890</right_val></_></_>
        <_>
          <_>
            <feature>
              <rects>
                <_>
                  7 8 10 6 -1.</_>
                <_>
                  7 10 10 2 3.</_></rects>
              <tilted>0</tilted></feature>
            <threshold>3.2056400086730719e-003</threshold>
            <left_val>-0.3447625041007996</left_val>
            <right_val>0.2709352970123291</right_val></_></_>
        <_>
          <_>
            <feature>
              <rects>
                <_>
                  14 13 4 4 -1.</_>
                <_>
                  15 13 2 4 2.</_></rects>
              <tilted>0</tilted></feature>
            <threshold>-7.4696948286145926e-004</threshold>
            <left_val>0.3875623941421509</left_val>
            <right_val>-0.2253444045782089</right_val></_></_>
        <_>
          <_>
            <feature>
              <rects>
                <_>
                  14 44 4 4 -1.</_>
                <_>
                  15 44 2 4 2.</_></rects>
              <tilted>0</tilted></feature>
            <threshold>-5.9481128118932247e-004</threshold>
            <left_val>-0.7412809133529663</left_val>
            <right_val>0.1395906955003738</right_val></_></_>
        <_>
          <_>
            <feature>
              <rects>
                <_>
                  10 28 4 14 -1.</_>
                <_>
                  11 28 2 14 2.</_></rects>
              <tilted>0</tilted></feature>
            <threshold>-2.3485010024160147e-003</threshold>
            <left_val>0.4013729989528656</left_val>
            <right_val>-0.2222937941551209</right_val></_></_>
        <_>
          <_>
            <feature>
              <rects>
                <_>
                  14 44 4 4 -1.</_>
                <_>
                  15 44 2 4 2.</_></rects>
              <tilted>0</tilted></feature>
            <threshold>3.8265410694293678e-004</threshold>
            <left_val>0.1531756073236466</left_val>
            <right_val>-0.5985574126243591</right_val></_></_>
        <_>
          <_>
            <feature>
              <rects>
                <_>
                  15 10 4 34 -1.</_>
                <_>
                  15 10 2 17 2.</_>
                <_>
                  17 27 2 17 2.</_></rects>
              <tilted>0</tilted></feature>
            <threshold>0.0153084201738238</threshold>
            <left_val>-0.1827020943164825</left_val>
            <right_val>0.5021482706069946</right_val></_></_>
        <_>
          <_>
            <feature>
              <rects>
                <_>
                  8 7 8 6 -1.</_>
                <_>
                  10 7 4 6 2.</_></rects>
              <tilted>0</tilted></feature>
            <threshold>-3.7024670746177435e-003</threshold>
            <left_val>0.3562521040439606</left_val>
            <right_val>-0.2247020006179810</right_val></_></_>
        <_>
          <_>
            <feature>
              <rects>
                <_>
                  12 43 3 3 -1.</_>
                <_>
                  13 43 1 3 3.</_></rects>
              <tilted>0</tilted></feature>
            <threshold>3.3137909485958517e-004</threshold>
            <left_val>0.1115752980113030</left_val>
            <right_val>-0.6333615183830261</right_val></_></_></trees>
      <stage_threshold>-1.0650600194931030</stage_threshold>
      <parent>3</parent>
      <next>-1</next></_>
    <_>
      <trees>
        <_>
          <_>
            <feature>
              <rects>
                <_>
                  9 2 6 28 -1.</_>
                <_>
                  9 9 6 14 2.</_></rects>
              <tilted>0</tilted></feature>
            <threshold>0.0835829600691795</threshold>
            <left_val>-0.2546435892581940</left_val>
            <right_val>0.7194058895111084</right_val></_></_>
        <_>
          <_>
            <feature>
              <rects>
                <_>
                  13 42 2 1 -1.</_>
                <_>
                  13 42 1 1 2.</_></rects>
              <tilted>1</tilted></feature>
            <threshold>-1.9871880067512393e-004</threshold>
            <left_val>0.2780919969081879</left_val>
            <right_val>-0.3185493946075440</right_val></_></_>
        <_>
          <_>
            <feature>
              <rects>
                <_>
                  11 7 2 7 -1.</_>
                <_>
                  11 7 1 7 2.</_></rects>
              <tilted>1</tilted></feature>
            <threshold>-7.5254170224070549e-003</threshold>
            <left_val>0.6835215091705322</left_val>
            <right_val>-0.1287932991981506</right_val></_></_>
        <_>
          <_>
            <feature>
              <rects>
                <_>
                  2 24 20 23 -1.</_>
                <_>
                  7 24 10 23 2.</_></rects>
              <tilted>0</tilted></feature>
            <threshold>-0.0462006106972694</threshold>
            <left_val>0.2540245950222015</left_val>
            <right_val>-0.3343107998371124</right_val></_></_>
        <_>
          <_>
            <feature>
              <rects>
                <_>
                  9 44 3 2 -1.</_>
                <_>
                  10 44 1 2 3.</_></rects>
              <tilted>0</tilted></feature>
            <threshold>-2.6664620963856578e-004</threshold>
            <left_val>-0.7705482244491577</left_val>
            <right_val>0.1265013068914414</right_val></_></_>
        <_>
          <_>
            <feature>
              <rects>
                <_>
                  9 44 3 2 -1.</_>
                <_>
                  10 44 1 2 3.</_></rects>
              <tilted>0</tilted></feature>
            <threshold>2.5518541224300861e-004</threshold>
            <left_val>0.1292656958103180</left_val>
            <right_val>-0.7758138775825501</right_val></_></_>
        <_>
          <_>
            <feature>
              <rects>
                <_>
                  9 34 6 8 -1.</_>
                <_>
                  11 34 2 8 3.</_></rects>
              <tilted>0</tilted></feature>
            <threshold>6.9838687777519226e-003</threshold>
            <left_val>-0.1678777933120728</left_val>
            <right_val>0.6395962238311768</right_val></_></_>
        <_>
          <_>
            <feature>
              <rects>
                <_>
                  9 39 6 2 -1.</_>
                <_>
                  11 39 2 2 3.</_></rects>
              <tilted>0</tilted></feature>
            <threshold>-1.0863579809665680e-003</threshold>
            <left_val>0.4113050103187561</left_val>
            <right_val>-0.2062989026308060</right_val></_></_>
        <_>
          <_>
            <feature>
              <rects>
                <_>
                  11 5 3 3 -1.</_>
                <_>
                  12 6 1 1 9.</_></rects>
              <tilted>0</tilted></feature>
            <threshold>-4.5745790703222156e-004</threshold>
            <left_val>0.2495619058609009</left_val>
            <right_val>-0.2976037859916687</right_val></_></_>
        <_>
          <_>
            <feature>
              <rects>
                <_>
                  0 0 24 33 -1.</_>
                <_>
                  6 0 12 33 2.</_></rects>
              <tilted>0</tilted></feature>
            <threshold>0.1667558997869492</threshold>
            <left_val>-0.1201006025075913</left_val>
            <right_val>0.6329842805862427</right_val></_></_>
        <_>
          <_>
            <feature>
              <rects>
                <_>
                  6 14 4 2 -1.</_>
                <_>
                  7 14 2 2 2.</_></rects>
              <tilted>0</tilted></feature>
            <threshold>-1.9189929298590869e-004</threshold>
            <left_val>0.3249760866165161</left_val>
            <right_val>-0.2399763017892838</right_val></_></_>
        <_>
          <_>
            <feature>
              <rects>
                <_>
                  14 43 3 5 -1.</_>
                <_>
                  15 43 1 5 3.</_></rects>
              <tilted>0</tilted></feature>
            <threshold>4.3187019764445722e-004</threshold>
            <left_val>0.1248325034976006</left_val>
            <right_val>-0.6619994044303894</right_val></_></_>
        <_>
          <_>
            <feature>
              <rects>
                <_>
                  10 6 6 6 -1.</_>
                <_>
                  10 8 6 2 3.</_></rects>
              <tilted>0</tilted></feature>
            <threshold>-3.4565930254757404e-003</threshold>
            <left_val>0.3402223885059357</left_val>
            <right_val>-0.2097499072551727</right_val></_></_>
        <_>
          <_>
            <feature>
              <rects>
                <_>
                  7 17 10 26 -1.</_>
                <_>
                  7 30 10 13 2.</_></rects>
              <tilted>0</tilted></feature>
            <threshold>-0.0382928811013699</threshold>
            <left_val>-0.5473827123641968</left_val>
            <right_val>0.1470939069986343</right_val></_></_>
        <_>
          <_>
            <feature>
              <rects>
                <_>
                  14 44 3 4 -1.</_>
                <_>
                  15 44 1 4 3.</_></rects>
              <tilted>0</tilted></feature>
            <threshold>-3.4575979225337505e-004</threshold>
            <left_val>-0.6647803783416748</left_val>
            <right_val>0.0905805528163910</right_val></_></_>
        <_>
          <_>
            <feature>
              <rects>
                <_>
                  13 37 6 10 -1.</_>
                <_>
                  13 37 3 5 2.</_>
                <_>
                  16 42 3 5 2.</_></rects>
              <tilted>0</tilted></feature>
            <threshold>-5.2790432237088680e-003</threshold>
            <left_val>0.3817532956600189</left_val>
            <right_val>-0.1720017045736313</right_val></_></_></trees>
      <stage_threshold>-1.1505130529403687</stage_threshold>
      <parent>4</parent>
      <next>-1</next></_>
    <_>
      <trees>
        <_>
          <_>
            <feature>
              <rects>
                <_>
                  0 6 24 12 -1.</_>
                <_>
                  8 10 8 4 9.</_></rects>
              <tilted>0</tilted></feature>
            <threshold>0.3746513128280640</threshold>
            <left_val>-0.1719157993793488</left_val>
            <right_val>0.8351156711578369</right_val></_></_>
        <_>
          <_>
            <feature>
              <rects>
                <_>
                  3 11 18 36 -1.</_>
                <_>
                  9 23 6 12 9.</_></rects>
              <tilted>0</tilted></feature>
            <threshold>-0.4370551109313965</threshold>
            <left_val>0.4308058917522430</left_val>
            <right_val>-0.2188871055841446</right_val></_></_>
        <_>
          <_>
            <feature>
              <rects>
                <_>
                  12 42 1 2 -1.</_>
                <_>
                  12 42 1 1 2.</_></rects>
              <tilted>1</tilted></feature>
            <threshold>-1.8074290710501373e-004</threshold>
            <left_val>0.1994639039039612</left_val>
            <right_val>-0.3589898943901062</right_val></_></_>
        <_>
          <_>
            <feature>
              <rects>
                <_>
                  8 33 8 8 -1.</_>
                <_>
                  10 33 4 8 2.</_></rects>
              <tilted>0</tilted></feature>
            <threshold>6.3118878751993179e-003</threshold>
            <left_val>-0.1511566936969757</left_val>
            <right_val>0.5024470090866089</right_val></_></_>
        <_>
          <_>
            <feature>
              <rects>
                <_>
                  4 13 8 32 -1.</_>
                <_>
                  4 13 4 16 2.</_>
                <_>
                  8 29 4 16 2.</_></rects>
              <tilted>0</tilted></feature>
            <threshold>-0.0342621989548206</threshold>
            <left_val>0.4684528112411499</left_val>
            <right_val>-0.1298816055059433</right_val></_></_>
        <_>
          <_>
            <feature>
              <rects>
                <_>
                  4 45 3 1 -1.</_>
                <_>
                  5 45 1 1 3.</_></rects>
              <tilted>0</tilted></feature>
            <threshold>1.3834419951308519e-004</threshold>
            <left_val>0.1082359030842781</left_val>
            <right_val>-0.6238363981246948</right_val></_></_>
        <_>
          <_>
            <feature>
              <rects>
                <_>
                  13 31 6 11 -1.</_>
                <_>
                  15 31 2 11 3.</_></rects>
              <tilted>0</tilted></feature>
            <threshold>4.5408951118588448e-003</threshold>
            <left_val>-0.1508243978023529</left_val>
            <right_val>0.4196735918521881</right_val></_></_>
        <_>
          <_>
            <feature>
              <rects>
                <_>
                  12 44 3 4 -1.</_>
                <_>
                  13 44 1 4 3.</_></rects>
              <tilted>0</tilted></feature>
            <threshold>-5.3601752733811736e-004</threshold>
            <left_val>-0.7607470154762268</left_val>
            <right_val>0.0726744681596756</right_val></_></_>
        <_>
          <_>
            <feature>
              <rects>
                <_>
                  13 41 10 1 -1.</_>
                <_>
                  18 41 5 1 2.</_></rects>
              <tilted>0</tilted></feature>
            <threshold>6.4496998675167561e-004</threshold>
            <left_val>-0.2787353098392487</left_val>
            <right_val>0.2654179036617279</right_val></_></_>
        <_>
          <_>
            <feature>
              <rects>
                <_>
                  11 33 6 9 -1.</_>
                <_>
                  13 33 2 9 3.</_></rects>
              <tilted>0</tilted></feature>
            <threshold>5.2604358643293381e-003</threshold>
            <left_val>-0.1363921016454697</left_val>
            <right_val>0.5028873085975647</right_val></_></_>
        <_>
          <_>
            <feature>
              <rects>
                <_>
                  9 7 13 4 -1.</_>
                <_>
                  9 9 13 2 2.</_></rects>
              <tilted>0</tilted></feature>
            <threshold>1.6120669897645712e-003</threshold>
            <left_val>-0.3230001926422119</left_val>
            <right_val>0.2258947938680649</right_val></_></_>
        <_>
          <_>
            <feature>
              <rects>
                <_>
                  12 15 6 3 -1.</_>
                <_>
                  14 15 2 3 3.</_></rects>
              <tilted>0</tilted></feature>
            <threshold>-7.9465791350230575e-004</threshold>
            <left_val>0.2771075069904327</left_val>
            <right_val>-0.2860172092914581</right_val></_></_>
        <_>
          <_>
            <feature>
              <rects>
                <_>
                  8 12 5 9 -1.</_>
                <_>
                  8 15 5 3 3.</_></rects>
              <tilted>0</tilted></feature>
            <threshold>-9.7821257077157497e-004</threshold>
            <left_val>0.2510369122028351</left_val>
            <right_val>-0.2576526105403900</right_val></_></_>
        <_>
          <_>
            <feature>
              <rects>
                <_>
                  10 43 3 5 -1.</_>
                <_>
                  11 43 1 5 3.</_></rects>
              <tilted>0</tilted></feature>
            <threshold>-4.6340530388988554e-004</threshold>
            <left_val>-0.6654179096221924</left_val>
            <right_val>0.0860374718904495</right_val></_></_>
        <_>
          <_>
            <feature>
              <rects>
                <_>
                  13 16 8 16 -1.</_>
                <_>
                  13 16 4 8 2.</_>
                <_>
                  17 24 4 8 2.</_></rects>
              <tilted>0</tilted></feature>
            <threshold>0.0239508897066116</threshold>
            <left_val>-0.1596789062023163</left_val>
            <right_val>0.4553982913494110</right_val></_></_>
        <_>
          <_>
            <feature>
              <rects>
                <_>
                  6 5 12 4 -1.</_>
                <_>
                  10 5 4 4 3.</_></rects>
              <tilted>0</tilted></feature>
            <threshold>-0.0318728014826775</threshold>
            <left_val>0.6308047771453857</left_val>
            <right_val>-0.1146622970700264</right_val></_></_>
        <_>
          <_>
            <feature>
              <rects>
                <_>
                  0 4 2 44 -1.</_>
                <_>
                  0 26 2 22 2.</_></rects>
              <tilted>0</tilted></feature>
            <threshold>0.0386071391403675</threshold>
            <left_val>-0.1346798986196518</left_val>
            <right_val>0.4618591964244843</right_val></_></_>
        <_>
          <_>
            <feature>
              <rects>
                <_>
                  5 38 3 9 -1.</_>
                <_>
                  6 41 1 3 9.</_></rects>
              <tilted>0</tilted></feature>
            <threshold>-5.9476657770574093e-004</threshold>
            <left_val>0.2489902973175049</left_val>
            <right_val>-0.2783589065074921</right_val></_></_>
        <_>
          <_>
            <feature>
              <rects>
                <_>
                  7 10 3 6 -1.</_>
                <_>
                  7 12 3 2 3.</_></rects>
              <tilted>0</tilted></feature>
            <threshold>-8.4193411748856306e-004</threshold>
            <left_val>0.3397862017154694</left_val>
            <right_val>-0.1924211978912354</right_val></_></_></trees>
      <stage_threshold>-1.0617990493774414</stage_threshold>
      <parent>5</parent>
      <next>-1</next></_>
    <_>
      <trees>
        <_>
          <_>
            <feature>
              <rects>
                <_>
                  2 11 20 1 -1.</_>
                <_>
                  7 11 10 1 2.</_></rects>
              <tilted>0</tilted></feature>
            <threshold>0.0117752095684409</threshold>
            <left_val>-0.2242240011692047</left_val>
            <right_val>0.5920165181159973</right_val></_></_>
        <_>
          <_>
            <feature>
              <rects>
                <_>
                  3 11 18 33 -1.</_>
                <_>
                  9 22 6 11 9.</_></rects>
              <tilted>0</tilted></feature>
            <threshold>-0.3557122945785523</threshold>
            <left_val>0.3419496119022369</left_val>
            <right_val>-0.2308367937803268</right_val></_></_>
        <_>
          <_>
            <feature>
              <rects>
                <_>
                  0 42 14 2 -1.</_>
                <_>
                  0 42 7 1 2.</_>
                <_>
                  7 43 7 1 2.</_></rects>
              <tilted>0</tilted></feature>
            <threshold>7.0251681609079242e-004</threshold>
            <left_val>-0.2476678937673569</left_val>
            <right_val>0.2744272947311401</right_val></_></_>
        <_>
          <_>
            <feature>
              <rects>
                <_>
                  10 5 4 4 -1.</_>
                <_>
                  10 6 4 2 2.</_></rects>
              <tilted>0</tilted></feature>
            <threshold>-6.0137419495731592e-004</threshold>
            <left_val>0.2341479957103729</left_val>
            <right_val>-0.2802591025829315</right_val></_></_>
        <_>
          <_>
            <feature>
              <rects>
                <_>
                  10 44 3 3 -1.</_>
                <_>
                  11 44 1 3 3.</_></rects>
              <tilted>0</tilted></feature>
            <threshold>3.0058561242185533e-004</threshold>
            <left_val>0.1406368017196655</left_val>
            <right_val>-0.6022465825080872</right_val></_></_>
        <_>
          <_>
            <feature>
              <rects>
                <_>
                  10 28 4 20 -1.</_>
                <_>
                  11 28 2 20 2.</_></rects>
              <tilted>0</tilted></feature>
            <threshold>2.4658269248902798e-003</threshold>
            <left_val>-0.2128348946571350</left_val>
            <right_val>0.3957962989807129</right_val></_></_>
        <_>
          <_>
            <feature>
              <rects>
                <_>
                  10 31 4 11 -1.</_>
                <_>
                  11 31 2 11 2.</_></rects>
              <tilted>0</tilted></feature>
            <threshold>-2.0409571006894112e-003</threshold>
            <left_val>0.4373540878295898</left_val>
            <right_val>-0.1580415964126587</right_val></_></_>
        <_>
          <_>
            <feature>
              <rects>
                <_>
                  4 45 3 3 -1.</_>
                <_>
                  5 45 1 3 3.</_></rects>
              <tilted>0</tilted></feature>
            <threshold>-2.8189498698338866e-004</threshold>
            <left_val>-0.6473972797393799</left_val>
            <right_val>0.0971225500106812</right_val></_></_>
        <_>
          <_>
            <feature>
              <rects>
                <_>
                  4 10 16 15 -1.</_>
                <_>
                  8 10 8 15 2.</_></rects>
              <tilted>0</tilted></feature>
            <threshold>0.0766635835170746</threshold>
            <left_val>-0.1295744031667709</left_val>
            <right_val>0.4805648028850555</right_val></_></_>
        <_>
          <_>
            <feature>
              <rects>
                <_>
                  11 32 6 10 -1.</_>
                <_>
                  13 32 2 10 3.</_></rects>
              <tilted>0</tilted></feature>
            <threshold>-0.0103868795558810</threshold>
            <left_val>0.4599282145500183</left_val>
            <right_val>-0.1605986058712006</right_val></_></_>
        <_>
          <_>
            <feature>
              <rects>
                <_>
                  6 4 9 37 -1.</_>
                <_>
                  9 4 3 37 3.</_></rects>
              <tilted>0</tilted></feature>
            <threshold>-0.0246395692229271</threshold>
            <left_val>0.3165054917335510</left_val>
            <right_val>-0.2131142020225525</right_val></_></_>
        <_>
          <_>
            <feature>
              <rects>
                <_>
                  8 7 3 7 -1.</_>
                <_>
                  9 8 1 7 3.</_></rects>
              <tilted>1</tilted></feature>
            <threshold>-2.0090478938072920e-003</threshold>
            <left_val>0.3468489944934845</left_val>
            <right_val>-0.1674923002719879</right_val></_></_>
        <_>
          <_>
            <feature>
              <rects>
                <_>
                  11 44 4 3 -1.</_>
                <_>
                  12 44 2 3 2.</_></rects>
              <tilted>0</tilted></feature>
            <threshold>3.3441459527239203e-004</threshold>
            <left_val>0.1012231037020683</left_val>
            <right_val>-0.6211776733398438</right_val></_></_>
        <_>
          <_>
            <feature>
              <rects>
                <_>
                  20 8 2 2 -1.</_>
                <_>
                  20 8 1 1 2.</_>
                <_>
                  21 9 1 1 2.</_></rects>
              <tilted>0</tilted></feature>
            <threshold>-1.4912590268068016e-004</threshold>
            <left_val>-0.5481473207473755</left_val>
            <right_val>0.0880294293165207</right_val></_></_>
        <_>
          <_>
            <feature>
              <rects>
                <_>
                  12 9 4 6 -1.</_>
                <_>
                  12 9 2 3 2.</_>
                <_>
                  14 12 2 3 2.</_></rects>
              <tilted>0</tilted></feature>
            <threshold>-2.6629469357430935e-003</threshold>
            <left_val>0.3881114125251770</left_val>
            <right_val>-0.1488081961870194</right_val></_></_>
        <_>
          <_>
            <feature>
              <rects>
                <_>
                  8 42 1 2 -1.</_>
                <_>
                  8 42 1 1 2.</_></rects>
              <tilted>1</tilted></feature>
            <threshold>-1.3645930448547006e-004</threshold>
            <left_val>0.2022541016340256</left_val>
            <right_val>-0.2710317075252533</right_val></_></_>
        <_>
          <_>
            <feature>
              <rects>
                <_>
                  17 4 2 2 -1.</_>
                <_>
                  17 4 1 1 2.</_>
                <_>
                  18 5 1 1 2.</_></rects>
              <tilted>0</tilted></feature>
            <threshold>1.5521940076723695e-004</threshold>
            <left_val>0.0908481925725937</left_val>
            <right_val>-0.5824261903762817</right_val></_></_>
        <_>
          <_>
            <feature>
              <rects>
                <_>
                  3 31 18 13 -1.</_>
                <_>
                  12 31 9 13 2.</_></rects>
              <tilted>0</tilted></feature>
            <threshold>0.0772960633039474</threshold>
            <left_val>0.0766817182302475</left_val>
            <right_val>-0.6384748220443726</right_val></_></_>
        <_>
          <_>
            <feature>
              <rects>
                <_>
                  21 28 2 2 -1.</_>
                <_>
                  21 28 1 1 2.</_>
                <_>
                  22 29 1 1 2.</_></rects>
              <tilted>0</tilted></feature>
            <threshold>-1.1791590077336878e-004</threshold>
            <left_val>-0.4897415935993195</left_val>
            <right_val>0.0995586067438126</right_val></_></_>
        <_>
          <_>
            <feature>
              <rects>
                <_>
                  8 32 4 10 -1.</_>
                <_>
                  10 32 2 10 2.</_></rects>
              <tilted>0</tilted></feature>
            <threshold>3.1368690542876720e-003</threshold>
            <left_val>-0.1429965049028397</left_val>
            <right_val>0.3726992905139923</right_val></_></_>
        <_>
          <_>
            <feature>
              <rects>
                <_>
                  7 34 4 8 -1.</_>
                <_>
                  8 34 2 8 2.</_></rects>
              <tilted>0</tilted></feature>
            <threshold>1.1312280548736453e-003</threshold>
            <left_val>-0.1603523045778275</left_val>
            <right_val>0.3742336928844452</right_val></_></_></trees>
      <stage_threshold>-1.0458600521087646</stage_threshold>
      <parent>6</parent>
      <next>-1</next></_>
    <_>
      <trees>
        <_>
          <_>
            <feature>
              <rects>
                <_>
                  6 8 11 4 -1.</_>
                <_>
                  6 10 11 2 2.</_></rects>
              <tilted>0</tilted></feature>
            <threshold>0.0183546505868435</threshold>
            <left_val>-0.1980360001325607</left_val>
            <right_val>0.5799639225006104</right_val></_></_>
        <_>
          <_>
            <feature>
              <rects>
                <_>
                  16 42 2 1 -1.</_>
                <_>
                  16 42 1 1 2.</_></rects>
              <tilted>1</tilted></feature>
            <threshold>-1.3182690599933267e-004</threshold>
            <left_val>0.2143906056880951</left_val>
            <right_val>-0.3160788118839264</right_val></_></_>
        <_>
          <_>
            <feature>
              <rects>
                <_>
                  10 9 12 30 -1.</_>
                <_>
                  10 9 6 15 2.</_>
                <_>
                  16 24 6 15 2.</_></rects>
              <tilted>0</tilted></feature>
            <threshold>0.1121696010231972</threshold>
            <left_val>-0.1370926052331924</left_val>
            <right_val>0.4565150141716003</right_val></_></_>
        <_>
          <_>
            <feature>
              <rects>
                <_>
                  6 3 12 6 -1.</_>
                <_>
                  10 5 4 2 9.</_></rects>
              <tilted>0</tilted></feature>
            <threshold>-0.0559334605932236</threshold>
            <left_val>0.5147700905799866</left_val>
            <right_val>-0.1284219026565552</right_val></_></_>
        <_>
          <_>
            <feature>
              <rects>
                <_>
                  6 24 6 19 -1.</_>
                <_>
                  8 24 2 19 3.</_></rects>
              <tilted>0</tilted></feature>
            <threshold>-7.5490968301892281e-003</threshold>
            <left_val>0.3404637873172760</left_val>
            <right_val>-0.1417797952890396</right_val></_></_>
        <_>
          <_>
            <feature>
              <rects>
                <_>
                  10 43 3 3 -1.</_>
                <_>
                  11 43 1 3 3.</_></rects>
              <tilted>0</tilted></feature>
            <threshold>3.8852530997246504e-004</threshold>
            <left_val>0.0922202095389366</left_val>
            <right_val>-0.6564509272575378</right_val></_></_>
        <_>
          <_>
            <feature>
              <rects>
                <_>
                  0 42 3 6 -1.</_>
                <_>
                  1 42 1 6 3.</_></rects>
              <tilted>0</tilted></feature>
            <threshold>6.8849918898195028e-004</threshold>
            <left_val>0.0765487402677536</left_val>
            <right_val>-0.6479800939559937</right_val></_></_>
        <_>
          <_>
            <feature>
              <rects>
                <_>
                  6 34 6 9 -1.</_>
                <_>
                  8 34 2 9 3.</_></rects>
              <tilted>0</tilted></feature>
            <threshold>2.9570579063147306e-003</threshold>
            <left_val>-0.1483283042907715</left_val>
            <right_val>0.3489325046539307</right_val></_></_>
        <_>
          <_>
            <feature>
              <rects>
                <_>
                  3 35 6 7 -1.</_>
                <_>
                  5 35 2 7 3.</_></rects>
              <tilted>0</tilted></feature>
            <threshold>8.0519262701272964e-004</threshold>
            <left_val>-0.2495175004005432</left_val>
            <right_val>0.2220101058483124</right_val></_></_>
        <_>
          <_>
            <feature>
              <rects>
                <_>
                  7 9 3 2 -1.</_>
                <_>
                  7 9 3 1 2.</_></rects>
              <tilted>1</tilted></feature>
            <threshold>8.5194467101246119e-004</threshold>
            <left_val>-0.1874171048402786</left_val>
            <right_val>0.2942047119140625</right_val></_></_>
        <_>
          <_>
            <feature>
              <rects>
                <_>
                  4 9 1 3 -1.</_>
                <_>
                  4 10 1 1 3.</_></rects>
              <tilted>0</tilted></feature>
            <threshold>2.2088960395194590e-004</threshold>
            <left_val>0.1099904999136925</left_val>
            <right_val>-0.4674314856529236</right_val></_></_>
        <_>
          <_>
            <feature>
              <rects>
                <_>
                  9 5 3 3 -1.</_>
                <_>
                  9 6 3 1 3.</_></rects>
              <tilted>0</tilted></feature>
            <threshold>-1.3564439723268151e-004</threshold>
            <left_val>0.1880439072847366</left_val>
            <right_val>-0.2653957903385162</right_val></_></_>
        <_>
          <_>
            <feature>
              <rects>
                <_>
                  10 1 4 2 -1.</_>
                <_>
                  10 1 2 2 2.</_></rects>
              <tilted>1</tilted></feature>
            <threshold>-2.1452659275382757e-003</threshold>
            <left_val>0.4071815013885498</left_val>
            <right_val>-0.1552207022905350</right_val></_></_>
        <_>
          <_>
            <feature>
              <rects>
                <_>
                  8 43 3 3 -1.</_>
                <_>
                  9 43 1 3 3.</_></rects>
              <tilted>0</tilted></feature>
            <threshold>4.4083499233238399e-004</threshold>
            <left_val>0.0852643027901649</left_val>
            <right_val>-0.6749631166458130</right_val></_></_>
        <_>
          <_>
            <feature>
              <rects>
                <_>
                  8 24 9 2 -1.</_>
                <_>
                  11 24 3 2 3.</_></rects>
              <tilted>0</tilted></feature>
            <threshold>-5.5167387472465634e-004</threshold>
            <left_val>0.1484275013208389</left_val>
            <right_val>-0.3179787993431091</right_val></_></_>
        <_>
          <_>
            <feature>
              <rects>
                <_>
                  2 22 20 3 -1.</_>
                <_>
                  7 22 10 3 2.</_></rects>
              <tilted>0</tilted></feature>
            <threshold>0.0249550808221102</threshold>
            <left_val>-0.0832861065864563</left_val>
            <right_val>0.6832078099250794</right_val></_></_>
        <_>
          <_>
            <feature>
              <rects>
                <_>
                  13 3 4 12 -1.</_>
                <_>
                  13 3 4 6 2.</_></rects>
              <tilted>1</tilted></feature>
            <threshold>0.0407638885080814</threshold>
            <left_val>0.0972902774810791</left_val>
            <right_val>-0.6184436082839966</right_val></_></_>
        <_>
          <_>
            <feature>
              <rects>
                <_>
                  14 10 1 6 -1.</_>
                <_>
                  14 13 1 3 2.</_></rects>
              <tilted>0</tilted></feature>
            <threshold>-4.3902880861423910e-004</threshold>
            <left_val>0.2025098949670792</left_val>
            <right_val>-0.2521434128284454</right_val></_></_>
        <_>
          <_>
            <feature>
              <rects>
                <_>
                  15 8 5 3 -1.</_>
                <_>
                  14 9 5 1 3.</_></rects>
              <tilted>1</tilted></feature>
            <threshold>-2.3509820457547903e-003</threshold>
            <left_val>0.4145968854427338</left_val>
            <right_val>-0.1327275037765503</right_val></_></_>
        <_>
          <_>
            <feature>
              <rects>
                <_>
                  12 5 8 3 -1.</_>
                <_>
                  11 6 8 1 3.</_></rects>
              <tilted>1</tilted></feature>
            <threshold>5.1518958061933517e-003</threshold>
            <left_val>-0.1122284010052681</left_val>
            <right_val>0.4706268012523651</right_val></_></_>
        <_>
          <_>
            <feature>
              <rects>
                <_>
                  8 44 3 2 -1.</_>
                <_>
                  9 44 1 2 3.</_></rects>
              <tilted>0</tilted></feature>
            <threshold>-2.1192360145505518e-004</threshold>
            <left_val>-0.5512936115264893</left_val>
            <right_val>0.0985253900289536</right_val></_></_>
        <_>
          <_>
            <feature>
              <rects>
                <_>
                  10 34 6 7 -1.</_>
                <_>
                  12 34 2 7 3.</_></rects>
              <tilted>0</tilted></feature>
            <threshold>5.5971220135688782e-003</threshold>
            <left_val>-0.1384464055299759</left_val>
            <right_val>0.4224007129669190</right_val></_></_>
        <_>
          <_>
            <feature>
              <rects>
                <_>
                  10 31 6 13 -1.</_>
                <_>
                  12 31 2 13 3.</_></rects>
              <tilted>0</tilted></feature>
            <threshold>-8.3073209971189499e-003</threshold>
            <left_val>0.3386726975440979</left_val>
            <right_val>-0.1496746987104416</right_val></_></_>
        <_>
          <_>
            <feature>
              <rects>
                <_>
                  6 43 1 2 -1.</_>
                <_>
                  6 43 1 1 2.</_></rects>
              <tilted>1</tilted></feature>
            <threshold>-2.7511630833032541e-005</threshold>
            <left_val>0.1870097965002060</left_val>
            <right_val>-0.2819545865058899</right_val></_></_>
        <_>
          <_>
            <feature>
              <rects>
                <_>
                  2 2 2 2 -1.</_>
                <_>
                  2 2 1 1 2.</_>
                <_>
                  3 3 1 1 2.</_></rects>
              <tilted>0</tilted></feature>
            <threshold>-1.8473829550202936e-004</threshold>
            <left_val>-0.5811222791671753</left_val>
            <right_val>0.0832633599638939</right_val></_></_>
        <_>
          <_>
            <feature>
              <rects>
                <_>
                  10 23 4 1 -1.</_>
                <_>
                  11 23 2 1 2.</_></rects>
              <tilted>0</tilted></feature>
            <threshold>-9.0708117932081223e-004</threshold>
            <left_val>-0.7305843234062195</left_val>
            <right_val>0.0563186481595039</right_val></_></_></trees>
      <stage_threshold>-1.0718820095062256</stage_threshold>
      <parent>7</parent>
      <next>-1</next></_>
    <_>
      <trees>
        <_>
          <_>
            <feature>
              <rects>
                <_>
                  0 1 24 27 -1.</_>
                <_>
                  8 10 8 9 9.</_></rects>
              <tilted>0</tilted></feature>
            <threshold>0.7595217227935791</threshold>
            <left_val>-0.1564493030309677</left_val>
            <right_val>0.6768010854721069</right_val></_></_>
        <_>
          <_>
            <feature>
              <rects>
                <_>
                  12 19 4 8 -1.</_>
                <_>
                  10 21 4 4 2.</_></rects>
              <tilted>1</tilted></feature>
            <threshold>-9.0953325852751732e-003</threshold>
            <left_val>0.2952325046062470</left_val>
            <right_val>-0.1866429001092911</right_val></_></_>
        <_>
          <_>
            <feature>
              <rects>
                <_>
                  8 12 3 9 -1.</_>
                <_>
                  9 15 1 3 9.</_></rects>
              <tilted>0</tilted></feature>
            <threshold>-4.8524379963055253e-005</threshold>
            <left_val>0.1526554971933365</left_val>
            <right_val>-0.3490943014621735</right_val></_></_>
        <_>
          <_>
            <feature>
              <rects>
                <_>
                  10 11 9 36 -1.</_>
                <_>
                  13 23 3 12 9.</_></rects>
              <tilted>0</tilted></feature>
            <threshold>-0.1364510059356690</threshold>
            <left_val>0.2581535875797272</left_val>
            <right_val>-0.1815457046031952</right_val></_></_>
        <_>
          <_>
            <feature>
              <rects>
                <_>
                  18 0 3 48 -1.</_>
                <_>
                  18 24 3 24 2.</_></rects>
              <tilted>0</tilted></feature>
            <threshold>0.0309340991079807</threshold>
            <left_val>-0.1534475982189179</left_val>
            <right_val>0.2954724133014679</right_val></_></_>
        <_>
          <_>
            <feature>
              <rects>
                <_>
                  8 5 8 8 -1.</_>
                <_>
                  10 5 4 8 2.</_></rects>
              <tilted>0</tilted></feature>
            <threshold>-0.0143509600311518</threshold>
            <left_val>0.4553171098232269</left_val>
            <right_val>-0.1645136028528214</right_val></_></_>
        <_>
          <_>
            <feature>
              <rects>
                <_>
                  11 3 2 2 -1.</_>
                <_>
                  11 4 2 1 2.</_></rects>
              <tilted>0</tilted></feature>
            <threshold>5.1909952890127897e-004</threshold>
            <left_val>-0.0893164798617363</left_val>
            <right_val>0.4662348926067352</right_val></_></_>
        <_>
          <_>
            <feature>
              <rects>
                <_>
                  4 26 16 7 -1.</_>
                <_>
                  8 26 8 7 2.</_></rects>
              <tilted>0</tilted></feature>
            <threshold>0.0345068499445915</threshold>
            <left_val>-0.0788241624832153</left_val>
            <right_val>0.7168977856636047</right_val></_></_>
        <_>
          <_>
            <feature>
              <rects>
                <_>
                  8 24 8 2 -1.</_>
                <_>
                  10 24 4 2 2.</_></rects>
              <tilted>0</tilted></feature>
            <threshold>-1.2347819574642926e-004</threshold>
            <left_val>0.1778437942266464</left_val>
            <right_val>-0.3200565874576569</right_val></_></_>
        <_>
          <_>
            <feature>
              <rects>
                <_>
                  5 4 2 2 -1.</_>
                <_>
                  5 4 1 1 2.</_>
                <_>
                  6 5 1 1 2.</_></rects>
              <tilted>0</tilted></feature>
            <threshold>-1.5480899310205132e-004</threshold>
            <left_val>-0.5759493112564087</left_val>
            <right_val>0.0767338797450066</right_val></_></_>
        <_>
          <_>
            <feature>
              <rects>
                <_>
                  8 8 16 4 -1.</_>
                <_>
                  8 8 8 2 2.</_>
                <_>
                  16 10 8 2 2.</_></rects>
              <tilted>0</tilted></feature>
            <threshold>-0.0107332803308964</threshold>
            <left_val>0.3614591956138611</left_val>
            <right_val>-0.1455691009759903</right_val></_></_>
        <_>
          <_>
            <feature>
              <rects>
                <_>
                  10 42 1 2 -1.</_>
                <_>
                  10 42 1 1 2.</_></rects>
              <tilted>1</tilted></feature>
            <threshold>-1.6641190450172871e-004</threshold>
            <left_val>0.1612824052572250</left_val>
            <right_val>-0.3354034125804901</right_val></_></_>
        <_>
          <_>
            <feature>
              <rects>
                <_>
                  11 3 2 2 -1.</_>
                <_>
                  11 4 2 1 2.</_></rects>
              <tilted>0</tilted></feature>
            <threshold>-8.1060070078819990e-004</threshold>
            <left_val>0.4630453884601593</left_val>
            <right_val>-0.1238659024238586</right_val></_></_>
        <_>
          <_>
            <feature>
              <rects>
                <_>
                  16 44 3 2 -1.</_>
                <_>
                  17 44 1 2 3.</_></rects>
              <tilted>0</tilted></feature>
            <threshold>-2.5743409059941769e-004</threshold>
            <left_val>-0.6822620034217835</left_val>
            <right_val>0.0883160009980202</right_val></_></_>
        <_>
          <_>
            <feature>
              <rects>
                <_>
                  7 43 3 2 -1.</_>
                <_>
                  8 43 1 2 3.</_></rects>
              <tilted>0</tilted></feature>
            <threshold>2.5574900791980326e-004</threshold>
            <left_val>0.0642466917634010</left_val>
            <right_val>-0.5881329774856567</right_val></_></_>
        <_>
          <_>
            <feature>
              <rects>
                <_>
                  7 37 6 8 -1.</_>
                <_>
                  9 37 2 8 3.</_></rects>
              <tilted>0</tilted></feature>
            <threshold>3.9325631223618984e-003</threshold>
            <left_val>-0.1305328011512756</left_val>
            <right_val>0.4198086857795715</right_val></_></_>
        <_>
          <_>
            <feature>
              <rects>
                <_>
                  5 38 6 8 -1.</_>
                <_>
                  5 38 3 4 2.</_>
                <_>
                  8 42 3 4 2.</_></rects>
              <tilted>0</tilted></feature>
            <threshold>2.5934919249266386e-003</threshold>
            <left_val>-0.2059967964887619</left_val>
            <right_val>0.3143337965011597</right_val></_></_>
        <_>
          <_>
            <feature>
              <rects>
                <_>
                  6 12 12 2 -1.</_>
                <_>
                  6 13 12 1 2.</_></rects>
              <tilted>0</tilted></feature>
            <threshold>-2.0942480477970093e-004</threshold>
            <left_val>0.1702167987823486</left_val>
            <right_val>-0.2715992033481598</right_val></_></_>
        <_>
          <_>
            <feature>
              <rects>
                <_>
                  0 22 24 3 -1.</_>
                <_>
                  8 22 8 3 3.</_></rects>
              <tilted>0</tilted></feature>
            <threshold>0.0425004996359348</threshold>
            <left_val>-0.0839871615171433</left_val>
            <right_val>0.6273500919342041</right_val></_></_>
        <_>
          <_>
            <feature>
              <rects>
                <_>
                  12 20 6 15 -1.</_>
                <_>
                  14 20 2 15 3.</_></rects>
              <tilted>0</tilted></feature>
            <threshold>-9.4787357375025749e-003</threshold>
            <left_val>0.3408797085285187</left_val>
            <right_val>-0.1327044963836670</right_val></_></_>
        <_>
          <_>
            <feature>
              <rects>
                <_>
                  4 12 20 30 -1.</_>
                <_>
                  4 22 20 10 3.</_></rects>
              <tilted>0</tilted></feature>
            <threshold>-0.1553951948881149</threshold>
            <left_val>0.2914529144763947</left_val>
            <right_val>-0.1593151986598969</right_val></_></_>
        <_>
          <_>
            <feature>
              <rects>
                <_>
                  0 0 24 38 -1.</_>
                <_>
                  0 19 24 19 2.</_></rects>
              <tilted>0</tilted></feature>
            <threshold>0.2265869975090027</threshold>
            <left_val>-0.1198424026370049</left_val>
            <right_val>0.4487760066986084</right_val></_></_>
        <_>
          <_>
            <feature>
              <rects>
                <_>
                  19 43 2 1 -1.</_>
                <_>
                  19 43 1 1 2.</_></rects>
              <tilted>1</tilted></feature>
            <threshold>-3.4863351174863055e-005</threshold>
            <left_val>0.1876472979784012</left_val>
            <right_val>-0.2649792134761810</right_val></_></_>
        <_>
          <_>
            <feature>
              <rects>
                <_>
                  17 44 3 1 -1.</_>
                <_>
                  18 44 1 1 3.</_></rects>
              <tilted>0</tilted></feature>
            <threshold>-1.2615100422408432e-004</threshold>
            <left_val>-0.5522058010101318</left_val>
            <right_val>0.0831792131066322</right_val></_></_>
        <_>
          <_>
            <feature>
              <rects>
                <_>
                  15 0 4 20 -1.</_>
                <_>
                  16 0 2 20 2.</_></rects>
              <tilted>0</tilted></feature>
            <threshold>-3.7847699131816626e-003</threshold>
            <left_val>0.3862828016281128</left_val>
            <right_val>-0.1333291977643967</right_val></_></_></trees>
      <stage_threshold>-1.0155349969863892</stage_threshold>
      <parent>8</parent>
      <next>-1</next></_>
    <_>
      <trees>
        <_>
          <_>
            <feature>
              <rects>
                <_>
                  3 0 18 30 -1.</_>
                <_>
                  9 10 6 10 9.</_></rects>
              <tilted>0</tilted></feature>
            <threshold>0.6784284710884094</threshold>
            <left_val>-0.1385876983404160</left_val>
            <right_val>0.7073761224746704</right_val></_></_>
        <_>
          <_>
            <feature>
              <rects>
                <_>
                  8 10 8 10 -1.</_>
                <_>
                  8 15 8 5 2.</_></rects>
              <tilted>0</tilted></feature>
            <threshold>-2.5672928895801306e-003</threshold>
            <left_val>0.1679663062095642</left_val>
            <right_val>-0.3485270142555237</right_val></_></_>
        <_>
          <_>
            <feature>
              <rects>
                <_>
                  13 19 9 10 -1.</_>
                <_>
                  16 22 3 10 3.</_></rects>
              <tilted>1</tilted></feature>
            <threshold>-0.0318039283156395</threshold>
            <left_val>0.2785534858703613</left_val>
            <right_val>-0.1858707070350647</right_val></_></_>
        <_>
          <_>
            <feature>
              <rects>
                <_>
                  10 42 14 2 -1.</_>
                <_>
                  10 42 7 1 2.</_>
                <_>
                  17 43 7 1 2.</_></rects>
              <tilted>0</tilted></feature>
            <threshold>-7.5435428880155087e-004</threshold>
            <left_val>0.2220204025506973</left_val>
            <right_val>-0.2207801043987274</right_val></_></_>
        <_>
          <_>
            <feature>
              <rects>
                <_>
                  5 44 3 2 -1.</_>
                <_>
                  6 44 1 2 3.</_></rects>
              <tilted>0</tilted></feature>
            <threshold>-2.5869160890579224e-004</threshold>
            <left_val>-0.6455358266830444</left_val>
            <right_val>0.0975767076015472</right_val></_></_>
        <_>
          <_>
            <feature>
              <rects>
                <_>
                  9 34 6 13 -1.</_>
                <_>
                  11 34 2 13 3.</_></rects>
              <tilted>0</tilted></feature>
            <threshold>6.0519329272210598e-003</threshold>
            <left_val>-0.1539757996797562</left_val>
            <right_val>0.3317260146141052</right_val></_></_>
        <_>
          <_>
            <feature>
              <rects>
                <_>
                  5 31 6 10 -1.</_>
                <_>
                  7 31 2 10 3.</_></rects>
              <tilted>0</tilted></feature>
            <threshold>4.6018501743674278e-003</threshold>
            <left_val>-0.1188789978623390</left_val>
            <right_val>0.3349109888076782</right_val></_></_>
        <_>
          <_>
            <feature>
              <rects>
                <_>
                  4 4 17 8 -1.</_>
                <_>
                  4 6 17 4 2.</_></rects>
              <tilted>0</tilted></feature>
            <threshold>-5.3621539846062660e-003</threshold>
            <left_val>0.1891905963420868</left_val>
            <right_val>-0.2598656117916107</right_val></_></_>
        <_>
          <_>
            <feature>
              <rects>
                <_>
                  7 8 10 9 -1.</_>
                <_>
                  7 11 10 3 3.</_></rects>
              <tilted>0</tilted></feature>
            <threshold>-3.4426429774612188e-003</threshold>
            <left_val>0.4099571108818054</left_val>
            <right_val>-0.1086760014295578</right_val></_></_>
        <_>
          <_>
            <feature>
              <rects>
                <_>
                  17 3 2 6 -1.</_>
                <_>
                  17 6 2 3 2.</_></rects>
              <tilted>0</tilted></feature>
            <threshold>-1.1924769496545196e-003</threshold>
            <left_val>-0.3608995079994202</left_val>
            <right_val>0.1317501962184906</right_val></_></_>
        <_>
          <_>
            <feature>
              <rects>
                <_>
                  14 1 9 6 -1.</_>
                <_>
                  12 3 9 2 3.</_></rects>
              <tilted>1</tilted></feature>
            <threshold>-0.0157088395208120</threshold>
            <left_val>0.2814806103706360</left_val>
            <right_val>-0.1726565957069397</right_val></_></_>
        <_>
          <_>
            <feature>
              <rects>
                <_>
                  8 5 8 2 -1.</_>
                <_>
                  10 5 4 2 2.</_></rects>
              <tilted>0</tilted></feature>
            <threshold>2.4577800650149584e-003</threshold>
            <left_val>-0.1053133979439735</left_val>
            <right_val>0.4087657928466797</right_val></_></_>
        <_>
          <_>
            <feature>
              <rects>
                <_>
                  10 5 3 3 -1.</_>
                <_>
                  11 6 1 1 9.</_></rects>
              <tilted>0</tilted></feature>
            <threshold>-4.2020520777441561e-004</threshold>
            <left_val>0.2043122053146362</left_val>
            <right_val>-0.2521569132804871</right_val></_></_>
        <_>
          <_>
            <feature>
              <rects>
                <_>
                  11 43 3 3 -1.</_>
                <_>
                  12 43 1 3 3.</_></rects>
              <tilted>0</tilted></feature>
            <threshold>2.0711989782284945e-004</threshold>
            <left_val>0.0887050628662109</left_val>
            <right_val>-0.4843690097332001</right_val></_></_>
        <_>
          <_>
            <feature>
              <rects>
                <_>
                  11 43 3 5 -1.</_>
                <_>
                  12 43 1 5 3.</_></rects>
              <tilted>0</tilted></feature>
            <threshold>-4.4397829333320260e-004</threshold>
            <left_val>-0.6087461709976196</left_val>
            <right_val>0.0759610682725906</right_val></_></_>
        <_>
          <_>
            <feature>
              <rects>
                <_>
                  2 41 20 1 -1.</_>
                <_>
                  7 41 10 1 2.</_></rects>
              <tilted>0</tilted></feature>
            <threshold>-1.1353499721735716e-003</threshold>
            <left_val>0.1909310966730118</left_val>
            <right_val>-0.2725653946399689</right_val></_></_>
        <_>
          <_>
            <feature>
              <rects>
                <_>
                  12 38 6 5 -1.</_>
                <_>
                  14 38 2 5 3.</_></rects>
              <tilted>0</tilted></feature>
            <threshold>1.0607009753584862e-003</threshold>
            <left_val>-0.1732289940118790</left_val>
            <right_val>0.2748551964759827</right_val></_></_>
        <_>
          <_>
            <feature>
              <rects>
                <_>
                  10 36 6 7 -1.</_>
                <_>
                  12 36 2 7 3.</_></rects>
              <tilted>0</tilted></feature>
            <threshold>4.6187699772417545e-003</threshold>
            <left_val>-0.1046432033181191</left_val>
            <right_val>0.4066492915153503</right_val></_></_>
        <_>
          <_>
            <feature>
              <rects>
                <_>
                  10 37 4 5 -1.</_>
                <_>
                  11 38 2 5 2.</_></rects>
              <tilted>1</tilted></feature>
            <threshold>1.5198730397969484e-003</threshold>
            <left_val>-0.1258838027715683</left_val>
            <right_val>0.3988302946090698</right_val></_></_>
        <_>
          <_>
            <feature>
              <rects>
                <_>
                  4 0 6 18 -1.</_>
                <_>
                  7 0 3 18 2.</_></rects>
              <tilted>0</tilted></feature>
            <threshold>0.0188072901219130</threshold>
            <left_val>-0.1366939991712570</left_val>
            <right_val>0.3561049997806549</right_val></_></_>
        <_>
          <_>
            <feature>
              <rects>
                <_>
                  14 37 8 5 -1.</_>
                <_>
                  16 37 4 5 2.</_></rects>
              <tilted>0</tilted></feature>
            <threshold>1.9790830556303263e-003</threshold>
            <left_val>-0.1856936961412430</left_val>
            <right_val>0.2531273961067200</right_val></_></_>
        <_>
          <_>
            <feature>
              <rects>
                <_>
                  22 18 1 24 -1.</_>
                <_>
                  22 26 1 8 3.</_></rects>
              <tilted>0</tilted></feature>
            <threshold>-1.1695759603753686e-003</threshold>
            <left_val>0.2155628949403763</left_val>
            <right_val>-0.2081886976957321</right_val></_></_>
        <_>
          <_>
            <feature>
              <rects>
                <_>
                  9 20 10 6 -1.</_>
                <_>
                  7 22 10 2 3.</_></rects>
              <tilted>1</tilted></feature>
            <threshold>-0.0101302703842521</threshold>
            <left_val>0.2550737857818604</left_val>
            <right_val>-0.1733314990997315</right_val></_></_>
        <_>
          <_>
            <feature>
              <rects>
                <_>
                  16 14 2 3 -1.</_>
                <_>
                  17 14 1 3 2.</_></rects>
              <tilted>0</tilted></feature>
            <threshold>3.9915239904075861e-004</threshold>
            <left_val>-0.1597898006439209</left_val>
            <right_val>0.2991900146007538</right_val></_></_>
        <_>
          <_>
            <feature>
              <rects>
                <_>
                  20 12 2 2 -1.</_>
                <_>
                  20 12 1 1 2.</_>
                <_>
                  21 13 1 1 2.</_></rects>
              <tilted>0</tilted></feature>
            <threshold>8.0849313235376030e-005</threshold>
            <left_val>0.1300335973501205</left_val>
            <right_val>-0.3640191853046417</right_val></_></_>
        <_>
          <_>
            <feature>
              <rects>
                <_>
                  17 43 1 2 -1.</_>
                <_>
                  17 43 1 1 2.</_></rects>
              <tilted>1</tilted></feature>
            <threshold>-2.1886789909331128e-005</threshold>
            <left_val>0.1600684970617294</left_val>
            <right_val>-0.2669878005981445</right_val></_></_>
        <_>
          <_>
            <feature>
              <rects>
                <_>
                  15 43 3 3 -1.</_>
                <_>
                  16 43 1 3 3.</_></rects>
              <tilted>0</tilted></feature>
            <threshold>-4.7083859681151807e-004</threshold>
            <left_val>-0.6796519756317139</left_val>
            <right_val>0.0667259171605110</right_val></_></_>
        <_>
          <_>
            <feature>
              <rects>
                <_>
                  15 0 4 8 -1.</_>
                <_>
                  16 1 2 8 2.</_></rects>
              <tilted>1</tilted></feature>
            <threshold>-5.7654380798339844e-003</threshold>
            <left_val>0.3170177042484283</left_val>
            <right_val>-0.1488835960626602</right_val></_></_>
        <_>
          <_>
            <feature>
              <rects>
                <_>
                  18 0 6 48 -1.</_>
                <_>
                  18 24 6 24 2.</_></rects>
              <tilted>0</tilted></feature>
            <threshold>0.1294471025466919</threshold>
            <left_val>-0.1256359964609146</left_val>
            <right_val>0.3881038129329681</right_val></_></_>
        <_>
          <_>
            <feature>
              <rects>
                <_>
                  0 12 14 24 -1.</_>
                <_>
                  0 12 7 12 2.</_>
                <_>
                  7 24 7 12 2.</_></rects>
              <tilted>0</tilted></feature>
            <threshold>0.0879919677972794</threshold>
            <left_val>-0.0568324998021126</left_val>
            <right_val>0.8149061799049377</right_val></_></_></trees>
      <stage_threshold>-0.9088934063911438</stage_threshold>
      <parent>9</parent>
      <next>-1</next></_>
    <_>
      <trees>
        <_>
          <_>
            <feature>
              <rects>
                <_>
                  8 2 8 28 -1.</_>
                <_>
                  8 9 8 14 2.</_></rects>
              <tilted>0</tilted></feature>
            <threshold>0.1591610014438629</threshold>
            <left_val>-0.1197013035416603</left_val>
            <right_val>0.6522594094276428</right_val></_></_>
        <_>
          <_>
            <feature>
              <rects>
                <_>
                  9 14 10 2 -1.</_>
                <_>
                  9 15 10 1 2.</_></rects>
              <tilted>0</tilted></feature>
            <threshold>-1.4072470366954803e-004</threshold>
            <left_val>0.1745648980140686</left_val>
            <right_val>-0.2662330865859985</right_val></_></_>
        <_>
          <_>
            <feature>
              <rects>
                <_>
                  12 28 3 12 -1.</_>
                <_>
                  12 28 3 6 2.</_></rects>
              <tilted>1</tilted></feature>
            <threshold>-0.0133549300953746</threshold>
            <left_val>0.1715677976608276</left_val>
            <right_val>-0.2609114944934845</right_val></_></_>
        <_>
          <_>
            <feature>
              <rects>
                <_>
                  5 4 15 8 -1.</_>
                <_>
                  5 6 15 4 2.</_></rects>
              <tilted>0</tilted></feature>
            <threshold>-7.6038432307541370e-003</threshold>
            <left_val>0.1864226013422012</left_val>
            <right_val>-0.2300792932510376</right_val></_></_>
        <_>
          <_>
            <feature>
              <rects>
                <_>
                  14 42 1 2 -1.</_>
                <_>
                  14 42 1 1 2.</_></rects>
              <tilted>1</tilted></feature>
            <threshold>-1.1034910130547360e-004</threshold>
            <left_val>0.1623924970626831</left_val>
            <right_val>-0.3018616139888763</right_val></_></_>
        <_>
          <_>
            <feature>
              <rects>
                <_>
                  9 11 9 6 -1.</_>
                <_>
                  9 13 9 2 3.</_></rects>
              <tilted>0</tilted></feature>
            <threshold>-1.2559209717437625e-003</threshold>
            <left_val>0.2647370100021362</left_val>
            <right_val>-0.1914090961217880</right_val></_></_>
        <_>
          <_>
            <feature>
              <rects>
                <_>
                  9 43 3 5 -1.</_>
                <_>
                  10 43 1 5 3.</_></rects>
              <tilted>0</tilted></feature>
            <threshold>4.1136419167742133e-004</threshold>
            <left_val>0.0599251501262188</left_val>
            <right_val>-0.6020743846893311</right_val></_></_>
        <_>
          <_>
            <feature>
              <rects>
                <_>
                  20 5 1 4 -1.</_>
                <_>
                  20 6 1 2 2.</_></rects>
              <tilted>0</tilted></feature>
            <threshold>-2.0984069851692766e-004</threshold>
            <left_val>-0.3774959146976471</left_val>
            <right_val>0.1448298990726471</right_val></_></_>
        <_>
          <_>
            <feature>
              <rects>
                <_>
                  11 38 6 5 -1.</_>
                <_>
                  13 38 2 5 3.</_></rects>
              <tilted>0</tilted></feature>
            <threshold>1.2534670531749725e-003</threshold>
            <left_val>-0.1544786989688873</left_val>
            <right_val>0.2984865009784699</right_val></_></_>
        <_>
          <_>
            <feature>
              <rects>
                <_>
                  6 14 4 2 -1.</_>
                <_>
                  7 14 2 2 2.</_></rects>
              <tilted>0</tilted></feature>
            <threshold>-4.6800210839137435e-004</threshold>
            <left_val>0.2605482935905457</left_val>
            <right_val>-0.1582480072975159</right_val></_></_>
        <_>
          <_>
            <feature>
              <rects>
                <_>
                  9 45 3 3 -1.</_>
                <_>
                  10 45 1 3 3.</_></rects>
              <tilted>0</tilted></feature>
            <threshold>-4.8154298565350473e-004</threshold>
            <left_val>-0.7211539149284363</left_val>
            <right_val>0.0451925098896027</right_val></_></_>
        <_>
          <_>
            <feature>
              <rects>
                <_>
                  12 31 3 9 -1.</_>
                <_>
                  13 31 1 9 3.</_></rects>
              <tilted>0</tilted></feature>
            <threshold>-1.5125439967960119e-003</threshold>
            <left_val>0.3015299141407013</left_val>
            <right_val>-0.1460137963294983</right_val></_></_>
        <_>
          <_>
            <feature>
              <rects>
                <_>
                  6 5 1 2 -1.</_>
                <_>
                  6 6 1 1 2.</_></rects>
              <tilted>0</tilted></feature>
            <threshold>-9.8486867500469089e-005</threshold>
            <left_val>-0.3332135081291199</left_val>
            <right_val>0.1274680048227310</right_val></_></_>
        <_>
          <_>
            <feature>
              <rects>
                <_>
                  6 1 12 9 -1.</_>
                <_>
                  10 4 4 3 9.</_></rects>
              <tilted>0</tilted></feature>
            <threshold>-0.1053588017821312</threshold>
            <left_val>0.6209974288940430</left_val>
            <right_val>-0.0669940933585167</right_val></_></_>
        <_>
          <_>
            <feature>
              <rects>
                <_>
                  12 2 6 5 -1.</_>
                <_>
                  14 2 2 5 3.</_></rects>
              <tilted>0</tilted></feature>
            <threshold>-1.1835610494017601e-003</threshold>
            <left_val>0.2607251107692719</left_val>
            <right_val>-0.1524527966976166</right_val></_></_>
        <_>
          <_>
            <feature>
              <rects>
                <_>
                  4 10 6 24 -1.</_>
                <_>
                  4 10 3 12 2.</_>
                <_>
                  7 22 3 12 2.</_></rects>
              <tilted>0</tilted></feature>
            <threshold>-0.0486791692674160</threshold>
            <left_val>0.5529497861862183</left_val>
            <right_val>-0.0768739283084869</right_val></_></_>
        <_>
          <_>
            <feature>
              <rects>
                <_>
                  0 24 24 9 -1.</_>
                <_>
                  8 24 8 9 3.</_></rects>
              <tilted>0</tilted></feature>
            <threshold>0.0670556202530861</threshold>
            <left_val>-0.0776606127619743</left_val>
            <right_val>0.5337231159210205</right_val></_></_>
        <_>
          <_>
            <feature>
              <rects>
                <_>
                  10 25 3 3 -1.</_>
                <_>
                  11 26 1 1 9.</_></rects>
              <tilted>0</tilted></feature>
            <threshold>-2.8373890090733767e-003</threshold>
            <left_val>-0.6729292869567871</left_val>
            <right_val>0.0692933127284050</right_val></_></_>
        <_>
          <_>
            <feature>
              <rects>
                <_>
                  10 25 3 3 -1.</_>
                <_>
                  11 26 1 1 9.</_></rects>
              <tilted>0</tilted></feature>
            <threshold>3.9975720574147999e-004</threshold>
            <left_val>0.1275832056999207</left_val>
            <right_val>-0.3886108994483948</right_val></_></_>
        <_>
          <_>
            <feature>
              <rects>
                <_>
                  13 5 1 3 -1.</_>
                <_>
                  13 6 1 1 3.</_></rects>
              <tilted>0</tilted></feature>
            <threshold>-1.9460609109955840e-005</threshold>
            <left_val>0.1455582976341248</left_val>
            <right_val>-0.2545892000198364</right_val></_></_>
        <_>
          <_>
            <feature>
              <rects>
                <_>
                  7 29 4 6 -1.</_>
                <_>
                  8 29 2 6 2.</_></rects>
              <tilted>0</tilted></feature>
            <threshold>-1.0500589851289988e-003</threshold>
            <left_val>0.2485284060239792</left_val>
            <right_val>-0.1603596061468124</right_val></_></_>
        <_>
          <_>
            <feature>
              <rects>
                <_>
                  7 30 4 13 -1.</_>
                <_>
                  8 30 2 13 2.</_></rects>
              <tilted>0</tilted></feature>
            <threshold>2.0559690892696381e-003</threshold>
            <left_val>-0.1283279061317444</left_val>
            <right_val>0.3260341882705689</right_val></_></_>
        <_>
          <_>
            <feature>
              <rects>
                <_>
                  8 43 3 1 -1.</_>
                <_>
                  9 43 1 1 3.</_></rects>
              <tilted>0</tilted></feature>
            <threshold>1.2786050501745194e-004</threshold>
            <left_val>0.0993763133883476</left_val>
            <right_val>-0.4920699894428253</right_val></_></_>
        <_>
          <_>
            <feature>
              <rects>
                <_>
                  10 5 5 8 -1.</_>
                <_>
                  10 7 5 4 2.</_></rects>
              <tilted>0</tilted></feature>
            <threshold>-3.5545120481401682e-003</threshold>
            <left_val>0.2278926074504852</left_val>
            <right_val>-0.1837210953235626</right_val></_></_>
        <_>
          <_>
            <feature>
              <rects>
                <_>
                  7 43 1 2 -1.</_>
                <_>
                  7 43 1 1 2.</_></rects>
              <tilted>1</tilted></feature>
            <threshold>-1.1618879943853244e-004</threshold>
            <left_val>0.1893889009952545</left_val>
            <right_val>-0.2170858979225159</right_val></_></_>
        <_>
          <_>
            <feature>
              <rects>
                <_>
                  15 7 1 6 -1.</_>
                <_>
                  15 10 1 3 2.</_></rects>
              <tilted>0</tilted></feature>
            <threshold>-1.4315299922600389e-003</threshold>
            <left_val>0.4464968144893646</left_val>
            <right_val>-0.0951493009924889</right_val></_></_>
        <_>
          <_>
            <feature>
              <rects>
                <_>
                  13 5 8 36 -1.</_>
                <_>
                  13 5 4 18 2.</_>
                <_>
                  17 23 4 18 2.</_></rects>
              <tilted>0</tilted></feature>
            <threshold>0.0696258395910263</threshold>
            <left_val>-0.1158017963171005</left_val>
            <right_val>0.3985320031642914</right_val></_></_>
        <_>
          <_>
            <feature>
              <rects>
                <_>
                  13 14 1 3 -1.</_>
                <_>
                  13 15 1 1 3.</_></rects>
              <tilted>0</tilted></feature>
            <threshold>5.6844310165615752e-005</threshold>
            <left_val>0.1324297040700913</left_val>
            <right_val>-0.3031933009624481</right_val></_></_>
        <_>
          <_>
            <feature>
              <rects>
                <_>
                  11 12 5 6 -1.</_>
                <_>
                  11 14 5 2 3.</_></rects>
              <tilted>0</tilted></feature>
            <threshold>-0.0107726203277707</threshold>
            <left_val>-0.6843485236167908</left_val>
            <right_val>0.0584920309484005</right_val></_></_>
        <_>
          <_>
            <feature>
              <rects>
                <_>
                  18 35 3 4 -1.</_>
                <_>
                  17 36 3 2 2.</_></rects>
              <tilted>1</tilted></feature>
            <threshold>6.7634228616952896e-004</threshold>
            <left_val>-0.1846681982278824</left_val>
            <right_val>0.2242940068244934</right_val></_></_>
        <_>
          <_>
            <feature>
              <rects>
                <_>
                  10 34 6 14 -1.</_>
                <_>
                  12 34 2 14 3.</_></rects>
              <tilted>0</tilted></feature>
            <threshold>4.0013510733842850e-003</threshold>
            <left_val>-0.1407569050788879</left_val>
            <right_val>0.3067519962787628</right_val></_></_></trees>
      <stage_threshold>-0.8456454873085022</stage_threshold>
      <parent>10</parent>
      <next>-1</next></_>
    <_>
      <trees>
        <_>
          <_>
            <feature>
              <rects>
                <_>
                  0 4 24 15 -1.</_>
                <_>
                  8 9 8 5 9.</_></rects>
              <tilted>0</tilted></feature>
            <threshold>0.4539344906806946</threshold>
            <left_val>-0.1359903067350388</left_val>
            <right_val>0.5429611802101135</right_val></_></_>
        <_>
          <_>
            <feature>
              <rects>
                <_>
                  4 22 16 6 -1.</_>
                <_>
                  4 24 16 2 3.</_></rects>
              <tilted>0</tilted></feature>
            <threshold>-3.4231850877404213e-003</threshold>
            <left_val>0.2355234026908875</left_val>
            <right_val>-0.1805378943681717</right_val></_></_>
        <_>
          <_>
            <feature>
              <rects>
                <_>
                  15 8 5 3 -1.</_>
                <_>
                  14 9 5 1 3.</_></rects>
              <tilted>1</tilted></feature>
            <threshold>6.9764112122356892e-003</threshold>
            <left_val>-0.0829095020890236</left_val>
            <right_val>0.4633246064186096</right_val></_></_>
        <_>
          <_>
            <feature>
              <rects>
                <_>
                  3 7 2 2 -1.</_>
                <_>
                  3 7 1 1 2.</_>
                <_>
                  4 8 1 1 2.</_></rects>
              <tilted>0</tilted></feature>
            <threshold>9.8986522061750293e-005</threshold>
            <left_val>0.0893162265419960</left_val>
            <right_val>-0.3929579854011536</right_val></_></_>
        <_>
          <_>
            <feature>
              <rects>
                <_>
                  4 24 16 11 -1.</_>
                <_>
                  8 24 8 11 2.</_></rects>
              <tilted>0</tilted></feature>
            <threshold>-0.0394788607954979</threshold>
            <left_val>0.2350289970636368</left_val>
            <right_val>-0.1582580059766769</right_val></_></_>
        <_>
          <_>
            <feature>
              <rects>
                <_>
                  0 18 1 30 -1.</_>
                <_>
                  0 33 1 15 2.</_></rects>
              <tilted>0</tilted></feature>
            <threshold>0.0105766803026199</threshold>
            <left_val>-0.1698866933584213</left_val>
            <right_val>0.2124512046575546</right_val></_></_>
        <_>
          <_>
            <feature>
              <rects>
                <_>
                  7 44 3 4 -1.</_>
                <_>
                  8 44 1 4 3.</_></rects>
              <tilted>0</tilted></feature>
            <threshold>-3.4605531254783273e-004</threshold>
            <left_val>-0.5262535214424133</left_val>
            <right_val>0.1003127023577690</right_val></_></_>
        <_>
          <_>
            <feature>
              <rects>
                <_>
                  8 34 6 9 -1.</_>
                <_>
                  10 34 2 9 3.</_></rects>
              <tilted>0</tilted></feature>
            <threshold>4.9262437969446182e-003</threshold>
            <left_val>-0.1350398063659668</left_val>
            <right_val>0.3376162052154541</right_val></_></_>
        <_>
          <_>
            <feature>
              <rects>
                <_>
                  9 31 4 11 -1.</_>
                <_>
                  10 31 2 11 2.</_></rects>
              <tilted>0</tilted></feature>
            <threshold>-3.1687580049037933e-003</threshold>
            <left_val>0.3319169878959656</left_val>
            <right_val>-0.1233918964862824</right_val></_></_>
        <_>
          <_>
            <feature>
              <rects>
                <_>
                  11 7 3 4 -1.</_>
                <_>
                  12 8 1 4 3.</_></rects>
              <tilted>1</tilted></feature>
            <threshold>4.9487329088151455e-003</threshold>
            <left_val>-0.0916428416967392</left_val>
            <right_val>0.4349080026149750</right_val></_></_>
        <_>
          <_>
            <feature>
              <rects>
                <_>
                  12 5 4 7 -1.</_>
                <_>
                  13 6 2 7 2.</_></rects>
              <tilted>1</tilted></feature>
            <threshold>-3.5370350815355778e-003</threshold>
            <left_val>0.2829945981502533</left_val>
            <right_val>-0.1433694064617157</right_val></_></_>
        <_>
          <_>
            <feature>
              <rects>
                <_>
                  7 43 3 4 -1.</_>
                <_>
                  8 43 1 4 3.</_></rects>
              <tilted>0</tilted></feature>
            <threshold>2.0381700596772134e-004</threshold>
            <left_val>0.1069248989224434</left_val>
            <right_val>-0.4380427896976471</right_val></_></_>
        <_>
          <_>
            <feature>
              <rects>
                <_>
                  1 30 2 2 -1.</_>
                <_>
                  1 30 1 1 2.</_>
                <_>
                  2 31 1 1 2.</_></rects>
              <tilted>0</tilted></feature>
            <threshold>-2.4551650858484209e-004</threshold>
            <left_val>-0.5929914116859436</left_val>
            <right_val>0.0525282807648182</right_val></_></_>
        <_>
          <_>
            <feature>
              <rects>
                <_>
                  7 13 5 2 -1.</_>
                <_>
                  7 14 5 1 2.</_></rects>
              <tilted>0</tilted></feature>
            <threshold>-4.2518939153524116e-005</threshold>
            <left_val>0.1406009048223496</left_val>
            <right_val>-0.2557441890239716</right_val></_></_>
        <_>
          <_>
            <feature>
              <rects>
                <_>
                  15 43 2 2 -1.</_>
                <_>
                  15 43 1 2 2.</_></rects>
              <tilted>1</tilted></feature>
